{"isPSO":"true","layers":[{"biasesArray":["0.23704","3.37593","-3.58325","2.94395","-2.90649","-3.30017","1.8941","0.222579","2.08145","2.24163","-0.245202","5.33001","1.31553","2.16362","0.800203","1.25595","4.50519","0.717168","-2.53803","1.17608","0.338177","0.678105","-1.96271","-2.24216","-1.06736","-1.75666","6.06061","0.451252","-3.50487","2.27945","0.0313308","1.32591"],"n_inputs":"18","n_neurons":"32","weightsArray":[["0.00469308","2.43875","-3.08119","-1.8002","0.0564284","2.13997","-0.0148047","1.92992","4.51061","-1.46352","-1.88451","-2.68493","-0.882691","7.4333","1.80746","0.6958","4.57885","-2.95892"],["2.78074","-0.577124","0.572781","0.328213","-4.10763","0.869763","-1.77235","-1.42018","3.99663","-2.8644","0.18547","1.09378","2.99928","-2.11452","-2.99012","-0.036662","-2.83896","-2.31165"],["-1.24103","1.38781","0.532364","0.109991","2.18058","-3.78051","4.91367","-1.4098","-7.4276","-0.858408","-2.28655","-3.42783","2.11659","0.793955","1.62758","-2.71839","2.19923","-6.81384"],["4.79277","3.20366","-2.4283","0.473114","2.97591","-2.27762","0.730229","0.443824","3.06805","0.127026","1.17445","-1.8553","0.905849","0.268507","-0.619359","-1.69304","3.07401","-1.22318"],["3.92301","-2.19847","-2.82561","-2.30066","-0.69875","0.680994","-2.63117","-2.03395","-1.84198","-2.12188","1.32053","-3.01758","-5.90736","-1.11031","2.13612","-1.23351","0.44382","1.41395"],["-2.85549","-2.17986","-0.197995","1.38808","-2.23871","2.235","-4.82631","-2.6347","3.61151","0.412877","-2.91579","-0.702077","-4.20541","-0.653683","1.27444","-4.82341","3.52065","2.60286"],["4.13882","1.21794","3.59051","-3.20602","3.10776","0.182659","0.685153","1.10291","-0.775018","0.250934","2.32048","-5.55626","0.389124","0.831242","6.07151","-1.75042","-4.49832","0.947905"],["1.51736","-4.42691","-2.69777","0.609474","-2.19515","4.15965","-2.42576","6.73434","3.45542","-1.4599","-1.24341","1.77571","-0.408666","0.336781","5.32699","-1.77332","2.94963","3.17074"],["-5.34651","5.80475","-2.62033","-0.126668","0.17896","4.8132","-3.79738","0.281554","2.31973","1.62704","1.46902","0.933313","-1.19205","3.17323","7.65538","3.46158","3.01386","6.6487"],["-1.33906","3.65677","1.89156","-5.82398","-1.18559","0.945082","0.527906","-5.93126","3.8438","-2.00907","3.18827","1.39821","-0.882457","-4.70119","-0.500085","3.82599","4.36528","-6.68082"],["-0.513752","2.52553","-1.94891","-2.16075","-0.356799","0.619172","-0.928977","-0.882473","-3.29454","-0.923593","1.17558","-0.0712848","-1.84311","2.14166","-0.450132","3.21838","0.666286","-0.614282"],["0.583795","-1.14372","0.436564","-0.158421","-0.251709","1.33053","-4.93399","-2.75719","-2.68129","4.40418","-1.7145","4.78046","-1.98978","0.80524","-6.26454","-1.07941","-2.51377","1.55903"],["0.205777","-1.5265","1.55434","0.182041","-1.63037","0.68741","-5.75057","2.16917","1.25434","2.87515","-0.773447","-2.64858","3.38384","-1.09684","4.18083","-4.27285","0.869966","-4.33014"],["5.61301","-2.24312","-1.42029","-1.59455","0.374787","0.528714","2.62715","0.334622","-0.0794256","1.3724","-0.499261","-0.631418","3.08437","-3.42804","4.12217","-2.55327","-0.167205","-0.708239"],["-6.47503","5.50041","-0.779855","-0.658396","-0.300609","2.13328","2.52595","-4.82786","-0.288427","-4.99205","-0.0887007","3.2748","-0.577195","-4.19012","-5.01627","-0.284057","-5.96372","1.709"],["-3.07802","-2.92575","3.58355","-4.3265","0.710595","-0.224118","-2.86228","-1.52831","4.26254","2.3624","3.72458","-6.22596","-1.5382","2.33264","-0.142641","1.98369","-0.1087","-3.59704"],["0.271424","-4.0459","-1.52486","2.35771","-3.50768","-6.11301","1.04012","-3.69756","-2.82208","-3.27496","3.37023","-1.77001","1.40284","-1.75123","-0.563292","2.1923","5.3665","-2.265"],["-1.66905","-1.74412","1.5286","-0.0109595","2.78187","1.65998","4.7686","1.42015","-3.74387","0.635984","-1.29412","5.39243","-2.86368","-2.13388","0.773681","-3.63904","-0.972111","-5.22547"],["2.1354","-0.296336","7.8316","1.84974","-1.33773","1.04049","-1.03426","1.9975","-4.18369","0.312533","2.08581","-0.108295","-3.16048","-0.623284","-1.70049","0.287969","0.464067","-0.051641"],["-3.83455","7.39712","-2.70814","-0.687591","-3.93181","-4.65846","0.370662","-0.540544","-3.04725","-2.01066","-4.68174","0.193162","2.82553","-3.24572","2.95696","-2.40873","-0.741326","3.46674"],["4.07067","0.767762","0.181739","-3.30593","4.08564","-2.0142","2.63958","5.56792","0.779746","-3.616","-2.67459","-4.0003","-0.422196","-4.67076","-1.65501","-0.480882","0.964158","-3.96047"],["-0.233916","-1.16735","-4.0485","3.28271","0.882881","-4.26728","-4.39928","3.71205","3.38255","-1.21391","-5.18064","2.70352","-3.51952","-3.99742","2.33827","3.4258","3.80433","0.056861"],["3.9273","0.149154","-3.39727","-2.25525","-3.28071","5.1274","1.25088","2.18917","-0.940992","-6.88521","-2.26441","1.74073","-3.85297","-1.75045","3.59955","-2.21996","0.374795","-2.46254"],["1.23614","-3.98349","-1.96888","-4.08672","4.19471","3.11513","-3.94009","-1.2085","-2.39962","3.01101","-0.816334","-0.554429","-6.05474","-2.54953","-2.12678","-0.245254","0.543367","6.34919"],["1.6511","1.33139","-0.294859","0.986468","2.86199","-2.64861","4.27524","-2.39884","2.29067","2.28624","-1.12267","2.27625","0.0867675","1.23046","0.63693","-2.64575","3.31888","1.67431"],["-1.60803","0.419661","1.80638","-0.29363","1.8755","0.272793","0.344737","2.98367","-2.06236","1.17669","0.611535","3.90183","-3.47901","0.20053","4.13848","-4.69372","-2.97626","-3.58521"],["0.422444","2.80562","1.51826","1.47233","-6.25035","1.67864","-1.26623","-0.129104","-0.778324","-0.268583","2.61709","-2.90383","0.972089","-0.179782","-4.4917","0.257848","1.05525","3.3991"],["-3.66267","1.89961","0.603869","1.06776","-4.57285","-0.919877","-4.28607","0.45764","1.29528","-1.15933","1.5232","1.00192","4.13985","0.268037","-0.597971","-1.5101","2.2884","1.02067"],["2.84695","3.22821","2.14743","-1.81094","1.23014","2.18463","-0.32251","5.113","-2.42125","-0.545447","1.35197","-6.52762","2.18146","1.66817","3.01961","5.1824","-1.39698","-4.74311"],["0.534621","2.31213","-1.50445","-1.58771","0.961388","-3.98572","3.27277","-0.0408374","3.28182","3.22282","-1.38096","2.00588","3.35435","1.80561","-3.59867","5.50317","-1.33212","6.19169"],["2.23274","2.32378","1.02444","0.0552112","0.996127","0.601093","-5.33471","-2.38897","4.80707","-2.23738","0.713219","-0.924936","-2.32184","2.76897","-0.0436564","2.56842","2.01744","-3.70524"],["-5.64672","2.52004","-2.30388","0.988057","1.81238","-0.818449","-6.03765","8.15234","3.609","-2.40953","-0.676772","1.1977","3.77937","-4.68579","2.91606","-2.08063","-2.2298","-0.1709"]]},{"biasesArray":["-0.336323","0.714438","2.80824","0.991394","1.10012","2.92043","-0.164782","-0.73182","-1.87069","3.32894","-1.50744","0.332282","0.249242","2.21517","0.414698","-0.324347","-3.68081","1.37258","-5.55816","0.27693","0.32011","2.55487","2.23989","-2.52641","0.994907","-4.00844","0.0712373","-1.26583","-1.85285","-3.94953","-5.257","-2.15553"],"n_inputs":"32","n_neurons":"32","weightsArray":[["2.59707","0.470236","-1.03077","-2.66887","-0.01085","1.67164","3.46715","0.409544","-4.93391","-1.20558","-2.04619","2.98392","0.582551","2.51495","1.68338","-4.83559","-3.68148","2.08907","4.38832","-0.712952","-0.295741","3.3186","-1.71382","-0.990453","-2.14182","0.869249","2.16644","-2.54119","-0.482648","1.53038","3.05606","-8.0657"],["-6.66746","-0.492794","-1.60086","4.21379","-0.166944","0.0990122","0.602347","-2.88764","-1.39518","2.54604","2.01287","3.86059","0.749072","2.89944","-3.26457","4.11457","0.673764","-5.12539","-5.99344","-1.08938","2.31427","-1.8719","-1.34229","1.16515","-0.279007","-4.57073","5.6652","-3.7429","-0.589418","1.53635","1.8661","-4.71417"],["3.09528","-0.832836","-2.53397","-1.30332","5.98326","4.96743","1.60306","-2.20797","-0.416479","4.00244","2.11393","-0.371112","-0.345948","1.57863","1.30394","-0.751853","1.94902","0.147743","-1.7075","0.164054","-2.43623","1.91692","-2.68772","0.328033","-0.343752","-6.81319","3.95843","0.718696","-0.600999","0.824476","1.82704","-3.2999"],["1.12875","1.5414","0.856724","-3.46539","1.45047","2.25402","1.76972","1.06033","-2.93363","-3.34761","1.78576","-6.63996","3.04308","-2.68253","-3.50885","-2.15209","0.552551","2.3301","1.70011","4.92942","-0.450457","-3.28301","0.285234","1.44163","-0.108213","-1.97977","-2.23145","1.10093","2.38808","-0.697517","-0.834652","0.43817"],["-0.521573","2.24945","-0.965039","-3.94521","-1.40519","2.06644","0.30499","0.881608","-2.50818","-4.84109","0.765551","-3.51159","7.00775","3.06766","-2.41222","-3.80978","-1.41795","-3.44515","-2.10978","-1.63322","2.76033","2.59517","-1.13348","-2.691","-1.03307","-3.05445","0.907652","0.363288","2.64496","-1.84687","-2.76709","3.06701"],["-3.75236","-2.62121","0.456533","2.74955","3.79764","1.87639","4.07153","-0.948485","6.59944","-2.45878","2.49269","0.509126","-0.707973","1.997","-1.22676","-0.338759","1.69889","2.18901","0.578709","0.963917","-0.105787","1.36552","5.74459","-2.77514","-0.709155","1.86724","3.07346","-3.21421","-3.46062","3.92445","0.330097","4.63856"],["0.0371113","-4.02345","0.623016","5.32681","0.410351","4.37065","2.44868","-1.96413","-3.28557","-3.33638","-3.38294","2.0206","4.18254","-5.5388","-0.474251","5.06209","-0.697822","0.103857","-1.00868","3.47061","2.84849","0.687117","-3.15195","3.08293","-1.65482","-1.70721","-1.1387","-2.86483","-3.00051","0.683844","-1.7141","-2.4903"],["4.5268","0.615855","-4.14858","-1.84823","2.55139","0.313467","-0.592624","-2.32419","-3.17847","2.47977","-3.332","2.73706","2.99642","0.224234","-2.56082","0.0447771","5.14435","-5.40595","1.39001","0.698512","-3.84964","-0.985598","-5.62181","0.46776","-3.32466","1.40137","0.0442562","2.06404","-1.82286","-2.01577","-4.50337","-2.16621"],["5.09835","-2.27271","0.384155","0.970721","2.11567","-1.22977","-3.68691","-1.74307","-3.54011","-3.10192","0.724505","-3.55806","1.28831","2.69748","-5.08535","3.93332","-3.76252","-0.868929","2.29056","-0.0495306","0.770059","8.9811","-1.30074","4.32813","3.36403","4.48168","-4.1784","2.07874","-3.43283","-0.198202","1.82092","-2.94217"],["1.08754","3.96571","-2.48711","6.96759","0.0132115","-5.96027","-0.536958","2.13379","0.0240538","-0.290378","0.197606","-0.0241153","-1.25046","4.40294","2.35249","2.5443","-0.946114","4.32318","-0.357607","2.58752","1.71884","6.93265","3.67383","1.50767","-0.062289","-1.981","-1.96861","2.14676","-1.32359","1.69973","-1.9449","3.11236"],["4.73605","2.2424","3.84436","5.29062","1.90421","3.26461","3.68076","3.60755","-0.614516","4.12706","-0.73949","4.80571","1.25701","-0.648593","-3.29333","-3.08328","0.180729","3.37231","-1.06708","-3.71353","-5.0774","-0.692555","2.98406","0.459741","-4.60587","0.183431","-3.21521","0.638521","3.19208","2.14804","-4.10431","-3.06375"],["-0.454506","-1.76429","-3.24132","-2.66504","-1.15164","-0.422883","2.95415","3.21894","1.07572","0.164315","-3.71088","-1.58981","0.806067","-2.54794","-1.25977","-4.3236","-9.84013","2.00686","0.900871","-0.274548","-1.07951","-3.99054","2.28009","0.821165","-2.21085","-2.03835","5.58913","2.39696","0.678825","-2.57308","-0.340584","-1.98226"],["-0.459144","4.17864","-2.68301","-2.29012","3.91706","-1.65382","2.3592","0.796759","-5.49409","0.00111141","-4.2166","0.208282","0.837924","-4.01104","-2.72708","-3.264","-3.90723","1.43648","5.16239","-5.03027","-2.07894","-3.56687","1.37524","-1.14922","-0.901877","0.0351301","4.82351","-0.877674","-0.808828","0.356594","5.07441","-2.17939"],["-2.94843","2.62309","8.33474","-0.522686","2.20981","-2.43364","0.0399916","2.4766","2.24301","-3.4387","-4.71668","-0.42542","-4.60344","1.21271","-3.58913","5.55515","-0.644717","-0.199155","3.14226","2.92244","0.648092","0.530362","-1.78219","-2.0227","1.52425","-3.75377","1.61003","2.47761","2.75543","-1.50399","-5.38935","0.296742"],["-0.0463581","1.98601","-1.82492","-5.20005","-2.15108","1.35967","0.642975","-1.53774","-1.1059","1.99103","-0.579791","-0.309005","-3.39154","-1.33916","-1.68","-1.54244","-4.15799","-3.94438","-0.515874","-1.69122","-3.22058","-0.482617","6.00132","-0.911789","-4.31707","-2.46565","-6.4038","-2.59529","1.93282","6.71558","6.3241","1.86224"],["-0.377111","-2.23719","1.2988","1.01797","1.17931","-2.86673","-6.15217","4.08649","2.57242","-4.6717","5.60679","-1.83074","3.92813","0.309611","-0.344236","-3.69258","-0.418032","2.96927","-6.84762","4.63877","2.35331","3.88006","0.037963","0.590917","5.93229","0.185841","-2.24664","1.49052","-3.3038","0.899862","2.54173","5.78714"],["1.92804","-5.1256","3.06803","-0.399003","1.17775","-2.31331","1.01332","-5.69015","2.12257","2.44166","3.79449","-1.69263","-0.752637","-3.46882","-0.610078","-0.575401","3.23118","-1.43051","-1.42286","3.69121","1.49282","-0.116933","0.273978","-4.55967","0.0805109","5.93116","-0.0769016","-2.70422","-0.977388","0.578785","1.10712","-0.307793"],["6.48006","1.49903","3.72453","3.64295","-0.58868","-2.8004","1.18004","-0.0743411","4.4925","4.72958","-1.20008","2.84306","-2.92478","-0.87273","1.51993","3.77668","-1.09861","0.0498706","3.41115","1.57501","-1.41172","-2.64247","-0.730999","1.99675","0.172797","-0.3244","-0.574528","4.14489","2.22017","-5.61953","2.91714","0.975426"],["-0.2092","0.202431","-2.85921","-1.70899","-2.72019","2.67149","-1.71254","-0.816854","-2.46364","-3.20085","1.2053","-2.72371","-2.68816","4.10597","-2.03723","-0.326783","2.20609","-0.695792","2.24461","5.68053","-0.713539","4.54686","0.825912","-2.78269","1.9784","-0.84956","-5.08649","-0.732648","-0.119347","4.69462","-0.297261","-3.55313"],["-0.685131","-3.55992","0.533846","1.43871","0.491339","-0.629529","-4.61386","1.87229","-4.01087","5.05161","-0.196423","-3.99285","-1.66185","2.96785","-5.18927","-0.670374","3.17069","-1.57975","0.622606","-2.42948","-1.01786","1.40644","-6.17654","-3.61229","1.15777","-2.49386","-4.51263","0.775223","4.53553","2.75175","-0.526365","-1.72072"],["1.20205","4.09424","1.13225","3.70775","2.1854","1.60941","4.3615","-0.375601","-0.958455","1.58201","1.47712","-0.376949","-1.90287","-2.23319","0.724286","-1.22053","-2.29625","3.93482","-0.653084","1.06469","3.63887","3.90799","-1.86174","-0.615123","2.21002","2.21123","5.34873","-1.41956","-4.6872","-5.19456","-0.0965995","-2.18051"],["5.47098","-3.16784","4.29339","0.0667164","1.15006","3.44226","0.209739","1.9909","-5.88154","2.35187","6.0993","0.208562","-0.616858","-0.926107","4.52623","-6.08563","-2.98671","3.41656","5.5172","4.59308","1.42775","1.62337","0.962241","-0.0364145","0.793147","-1.15637","-1.55757","1.30094","3.05802","-2.16224","1.95258","5.40025"],["-0.973686","-0.206767","3.22062","0.275844","-4.01096","0.738274","-0.409427","-0.010774","6.79564","0.804429","-3.17423","4.99146","-5.64831","1.70822","1.636","5.0985","-5.3732","-3.25416","-4.75127","2.19714","1.90053","0.510099","1.72459","2.30299","4.26117","-4.15942","-1.77397","-0.215821","-3.28041","0.576488","0.862314","-2.52123"],["1.23413","-4.34662","5.55252","-0.836919","-5.0124","-3.11249","2.00179","1.77515","-4.49214","-0.180459","-1.16721","-2.35816","-2.92701","-1.23559","-1.35339","-0.986861","2.11763","2.41318","-1.82295","-0.974424","0.565756","-0.021913","-2.00049","3.76197","-2.99866","-4.59356","2.81326","1.15585","-0.984759","1.70756","0.0391326","0.809343"],["-0.472926","3.91338","6.49349","-0.342189","2.78927","2.2082","3.47815","1.30968","-4.62593","1.32809","6.47957","0.284522","-1.00077","3.76773","-0.418246","2.39484","3.11102","2.02298","-1.17773","-0.92973","-3.26976","-1.45009","-1.97768","2.1728","-0.947468","-1.23792","0.701557","2.62165","1.34241","-1.79637","-4.47802","5.54229"],["-1.26446","-0.959454","1.57703","1.67388","-1.10556","-3.21021","-1.00006","-2.21981","-0.0861235","-1.59851","1.0","-0.0385589","1.55936","3.97649","0.501406","0.162756","-2.20628","-0.582049","-2.80468","-0.799912","-1.69132","0.441694","-5.67316","0.0999651","3.03359","-2.29927","1.61439","-3.70508","-2.75947","0.698644","-6.37999","3.18339"],["-2.70228","-3.60065","-0.136068","-0.380722","-5.10555","4.14976","-5.1687","-6.2783","2.03902","3.48755","-5.59922","-2.35246","-0.00618975","2.7356","0.970368","0.502115","1.48225","-2.3505","-0.469258","-1.29535","4.13283","0.729159","2.56638","2.20153","-2.02538","-4.09942","-2.54596","-0.533911","-4.24134","3.44009","-2.33586","0.724501"],["-3.07651","0.0606418","3.39541","1.11776","-0.596705","-1.7812","1.33878","0.958602","2.21719","-1.41658","-5.34937","1.98456","1.07356","-2.99619","6.79626","1.36894","-0.416986","-0.715297","0.07956","-2.22125","4.06458","4.38703","2.90372","1.43755","-3.97236","-0.0765585","1.59754","-2.02697","-5.25861","0.49367","-1.54251","0.238037"],["1.64981","1.23187","2.48634","-0.328722","0.912123","4.53024","-0.895286","-3.19838","-8.97195","-1.3593","-1.90365","-2.39246","-2.35678","-6.87768","1.08214","3.72999","3.09108","1.93553","-4.96182","-1.31809","-3.98987","1.63196","-1.24395","1.00367","0.968554","-6.26916","-3.4288","1.73578","-1.81794","0.734207","-0.0715791","-0.408663"],["-0.55014","-1.67908","1.21755","3.90635","-0.566838","0.137711","0.662295","-2.29597","3.36893","-4.38102","3.46491","3.67056","-0.154055","-3.21905","-5.50464","4.22728","-2.84266","-4.41891","-0.923728","3.07387","3.15647","4.1627","-1.83596","-4.16605","-1.52108","-5.26679","-0.602518","-1.19719","1.38105","-2.98753","-3.1105","1.24448"],["-2.50736","-3.03595","-2.36776","-3.94702","0.78196","-1.75249","0.0749613","-0.0692967","-1.53986","2.7438","0.445279","0.76104","-1.84172","-4.75123","1.60379","-0.379338","5.49145","2.09018","-1.92598","-2.83245","-0.570064","2.32059","-2.2701","-3.10312","-3.46677","2.98197","0.376534","2.27052","0.235082","1.00185","-5.20878","-2.5292"],["-0.173804","-4.53446","6.72232","-7.42403","2.95578","1.40071","-4.15459","2.63322","0.885764","4.36574","-5.16494","-1.41387","0.543463","0.760235","-1.10875","-2.89857","-7.87155","-1.93611","1.12831","3.61014","-2.37954","6.323","0.614622","1.387","3.21682","-0.942026","-2.33389","-1.24707","0.361586","-1.84174","0.00813022","0.196363"]]},{"biasesArray":["1.70593","0.0952953","1.91242","3.44379"],"n_inputs":"32","n_neurons":"4","weightsArray":[["1.75142","1.38868","-0.701939","-3.18839","-0.650331","-4.25131","1.98838","2.32042","-4.19186","-4.41944","-0.967269","1.12589","-1.8873","0.0110422","0.119185","1.10499","3.98186","-3.19726","-3.2216","-3.20173","-0.267987","0.119644","1.3706","0.567283","1.43349","-0.721451","-0.885302","2.71131","3.38754","0.407965","-2.01433","1.88632"],["-5.13036","-2.04371","0.216998","3.49721","4.02696","-0.699719","-1.70926","-1.35767","-1.63763","3.06893","1.69063","2.43829","8.06448","3.72368","1.9042","-3.40644","-1.69443","0.531516","3.87338","1.47472","0.288452","0.852381","-3.49959","-2.23346","0.785197","0.622941","0.861547","-0.0752731","1.04037","0.636004","1.40594","2.28908"],["-4.18547","1.77436","-1.30163","-3.3631","-1.62721","-3.49729","-1.16307","3.72466","-2.0857","1.82163","-3.68734","0.865537","-2.27378","1.73889","-0.796596","6.60064","-0.720464","-1.65854","-1.64822","2.50072","1.49515","-1.38001","0.661643","-4.27807","-1.19193","-4.70473","-4.84933","-2.1379","-2.08317","-1.507","-2.69786","3.32406"],["4.23954","2.66415","-2.26787","2.65897","-2.01629","1.31937","-2.71695","0.588669","3.08586","-5.87895","-3.4055","-0.884758","-5.15246","0.809939","-5.21301","0.804846","-2.09356","-3.40021","-0.974865","-2.92608","-0.177728","2.96377","-0.867759","6.36763","4.52729","0.734878","-3.08851","2.72024","-2.56983","-0.243224","0.694891","-0.0715378"]]}],"networkShape":["18","32","32","4"]}
