{"layers":[{"biasesArray":["-1.40762","-2.92468","5.08011","0.893109","1.17386","0.139043","-0.372138","-2.51232","-2.51434","-0.0698282","0.797251","0.73001","0.357635","1.15746","0.0149684","-0.518041","-2.37499","4.40974","0.832297","1.10631","0.19166","0.858239","2.08437","-0.169904","0.128306","0.0572099","-0.233069","0.986316","0.84685","-1.68616","0.0158254","0.357034"],"n_inputs":"18","n_neurons":"32","weightsArray":[["0.0405562","-0.132573","-1.45003","0.170596","-2.88903","-0.773352","1.0464","2.42027","-0.157647","2.1997","-0.370514","1.54993","-0.852082","0.395299","-0.481728","4.41255","2.82494","0.251646"],["3.04329","3.42081","1.13297","-1.77691","-0.763292","-3.10406","1.78341","2.46607","-6.86665","0.835995","-0.259548","5.03643","0.0155578","1.51265","0.91936","-0.246116","1.17854","2.8121"],["-1.1723","-0.226699","-0.30046","-0.521696","1.21755","-0.654055","3.00772","1.38458","1.90108","-0.171474","-0.172637","0.832517","-1.61623","0.448104","0.170626","-0.278458","0.706686","-2.39573"],["1.92586","0.172496","-0.339261","-2.25512","0.818304","-0.651411","-1.96488","-1.54869","3.08022","0.133125","-0.625359","2.00333","3.24871","-0.125691","0.318239","-2.18704","0.00204527","0.640721"],["-0.195026","-2.34802","3.73499","0.324489","1.22049","2.68807","-1.59874","-0.759822","0.0997747","2.45","-0.19825","0.209558","-1.64419","-1.04769","4.17267","1.42147","-1.39704","0.160429"],["0.760739","0.0394435","-0.418175","-0.168964","0.411017","0.127992","0.873739","-1.06047","2.6323","-0.512643","0.291441","0.728007","-2.67045","0.858446","1.58746","-0.933464","1.35446","-0.463009"],["-0.688695","1.5939","-2.20455","-0.561595","0.484727","-1.70444","0.412273","0.95787","-0.0492396","8.85317","-0.0385337","-1.25165","1.28929","-3.9672","-1.77367","1.83456","0.198473","0.429683"],["-0.7415","-2.83637","1.35505","0.653872","-0.38401","0.838925","-1.2654","0.844355","2.58942","0.04496","-0.634821","-0.343112","3.16795","2.85403","1.39725","5.37165","1.43973","0.732568"],["1.09962","-1.85729","0.0674338","0.759002","1.41547","-0.274549","-1.78807","-0.234739","0.478459","-0.688306","-1.15231","-0.869674","-0.0122448","-1.64548","1.33178","0.028262","1.80755","0.597149"],["-2.278","-0.168172","0.307569","0.417863","0.00417068","0.185263","4.74715","-0.659412","-5.09178","-1.11649","1.95253","0.6937","2.37218","-0.669672","-0.21844","1.05264","0.449728","-0.237627"],["0.882221","-1.51653","0.59236","-0.39124","-2.96983","0.392484","0.000742913","-1.49622","-0.0718211","-0.04011","1.04107","2.17894","0.349956","-2.35123","1.24797","-3.23771","5.55401","-0.951429"],["1.5647","0.664365","-0.146314","0.527495","-1.18929","-4.33625","0.0320715","1.50074","2.42232","0.560826","-0.367457","-0.186202","-0.693989","2.3218","1.37399","1.82113","-2.83867","0.553834"],["-0.32743","0.219865","0.316271","0.143226","0.260095","-1.21985","-0.591553","2.49176","3.58597","0.29739","-2.24653","-1.36291","1.81459","-2.87404","0.464589","-0.217915","0.878511","3.26184"],["-6.97921","2.20225","0.988001","-0.00487005","0.151223","2.40801","0.498025","-1.21423","2.50897","-0.658832","1.51995","-0.0633221","-2.7483","0.654937","-0.74281","-1.80034","-6.30302","-1.70623"],["0.893719","-0.849497","-2.0122","-1.39447","4.74739","1.16097","-1.08429","-0.585068","3.22738","4.90588","2.06936","-1.5625","-0.760694","0.601192","-4.51243","1.63582","0.622147","-0.277455"],["2.5368","-1.54197","0.368761","-0.383738","1.59827","-0.455605","0.501236","-0.202104","0.173615","4.99963","-5.52185","-3.0642","0.451386","0.658072","-0.481177","-1.60892","-2.68948","0.420366"],["-1.04665","1.50815","2.7055","-0.0756425","-0.806928","1.43909","-1.1233","-2.33621","0.402162","-0.108399","1.34473","-0.322836","-2.30569","-0.270974","-1.52503","0.357683","0.719905","1.69536"],["-3.9474","-1.87239","0.743444","-0.509512","2.45702","3.03898","0.822804","-0.515915","-0.741742","7.69441","0.321613","-2.57854","-1.50503","-1.88959","-0.144605","2.15241","3.05571","0.344257"],["-0.605324","1.91652","1.49546","1.05683","-0.247134","-1.11345","0.812629","0.333573","-0.107242","-0.596943","0.0348811","1.57745","0.346576","-0.249827","-0.294057","-0.216642","0.255951","0.483079"],["-1.11048","1.47563","-0.762462","2.10747","1.956","3.06162","-0.551046","0.599537","1.04315","2.18446","1.11732","0.390425","-1.74317","-0.146591","2.11241","0.938973","0.327644","2.09444"],["-1.52577","2.32556","0.610798","-1.33257","-0.576337","0.850607","-0.326124","1.31108","3.89157","-0.834491","0.71708","0.305096","1.28612","0.830962","-1.65235","1.93733","0.164727","-2.35298"],["-0.195046","-0.608156","-1.00964","2.30965","-0.884028","-9.56816","-1.62268","-2.82338","-1.39107","0.0345621","-2.11798","0.629851","1.37171","-0.684363","3.29296","0.346122","-1.68923","-3.4089"],["-5.92049","-3.34172","1.25855","-1.32199","-1.14218","-1.25485","3.93196","3.75017","2.81608","0.16757","-0.20326","1.56467","-0.208199","-0.20065","3.02363","-0.184809","-2.65263","1.42464"],["-0.995843","-0.439724","0.0138062","-1.06499","-0.515437","1.25627","-1.43101","-0.385565","2.72085","2.02578","-1.38034","0.879877","0.522385","0.562664","-1.86233","1.62105","-2.38883","3.79289"],["-5.81734","0.955383","2.25901","-2.081","0.0086674","-1.24523","-0.499844","-0.523004","0.646923","-2.25488","-1.95524","-0.0438371","0.287981","-0.988292","-0.340068","3.09087","1.46191","-2.8754"],["0.51955","0.900155","0.377349","0.16122","-1.18258","0.0490699","-0.644814","-0.0426313","0.767566","-0.084019","-0.533794","-0.0401592","-1.8153","0.40544","0.0964657","-0.0507774","-0.802131","5.49636"],["-6.26591","-0.367473","0.72019","-0.186769","7.35527","1.29997","6.51701","-3.57204","1.00698","1.82341","1.0792","-0.382155","-1.86172","-2.91178","1.6869","-1.30199","-0.522313","0.315494"],["3.97011","-1.07358","0.343929","0.499692","1.16521","-2.60233","-1.05804","0.361855","1.51163","-2.41795","-3.27823","-0.0458426","-2.32221","1.10677","0.218086","-0.15946","0.884276","-1.22771"],["-1.3715","-2.0649","0.991466","1.94587","4.42198","-1.18964","1.98916","3.11606","-0.992127","-0.703641","-1.44232","0.656284","2.52707","-0.416291","2.08967","-0.0533177","0.217005","-1.71582"],["2.4164","1.42612","0.362847","-2.156","0.547367","2.01806","2.68373","1.74085","0.363471","-1.00887","-0.174435","2.52044","-1.00833","-0.547729","0.0230815","0.451217","-0.710039","1.33217"],["0.57567","-0.0798606","0.347063","0.289463","-0.604192","-1.73476","0.908705","-0.277777","-1.16098","2.13741","-0.490542","1.28265","-0.200439","-1.28435","0.187833","1.77387","0.272739","-0.851059"],["-0.309727","-0.549232","-1.92315","-0.258718","0.108833","1.68002","-0.336557","0.391988","1.47382","0.971869","-1.21575","0.385313","-0.760587","1.21421","1.88229","-0.741457","1.65573","-0.556752"]]},{"biasesArray":["-1.72176","2.10861","0.430561","0.544873","2.67697","-0.930253","1.4724","4.57036","1.07643","1.13797","-2.26925","-0.297788","-2.64941","2.46286","-0.854919","1.1304","-2.63302","-1.09523","-1.97351","-0.493155","-1.86253","0.16919","3.20205","-0.552173","-0.879757","-2.99159","-1.13105","-0.00135971","0.377828","0.431488","1.08394","-0.128701"],"n_inputs":"32","n_neurons":"32","weightsArray":[["1.91184","-0.17688","0.69071","-0.882366","1.01931","0.121975","-0.385881","0.64606","0.810836","1.10472","-1.25453","-4.85353","0.645468","-0.684459","-0.159727","-0.0406865","0.325888","-3.56654","0.833947","-0.0531675","4.50639","-0.186935","-1.84902","0.39748","1.72507","-0.0197302","-0.447483","-2.32383","-1.33585","-0.186982","0.477991","-1.0159"],["0.0235444","-0.630442","1.9842","-1.51523","1.01274","-0.362757","-0.0523809","-1.44726","1.2214","-1.47253","-0.776271","0.16533","0.562003","1.10188","-5.13238","-2.29359","-1.69568","-1.66431","0.853811","0.428749","0.534706","-2.98583","0.23182","0.441829","0.924835","0.242757","-2.58576","2.15481","2.02802","-4.01333","-5.47552","-0.880597"],["0.734649","-0.121488","0.336094","-1.36546","1.32247","1.24542","0.276817","-2.18512","1.78742","0.276723","0.172989","2.10092","1.87517","3.0443","2.9935","1.48016","0.231889","1.38361","2.09027","2.34739","1.1106","0.303441","-0.750539","-1.93213","-0.816111","0.85294","-1.33766","0.866005","2.36102","0.141395","0.435155","-2.52191"],["0.747239","-0.311117","1.92103","2.01799","-0.214874","0.0214615","2.17752","-0.32563","-2.93103","0.852217","-0.890312","-0.623392","2.40133","2.15545","1.71119","0.0393232","-0.380707","-0.431807","1.81666","0.378709","-0.78909","0.542942","-0.437164","-1.40994","-5.67241","2.70935","0.125388","-0.69701","-0.986295","-0.887298","2.0887","2.06176"],["0.139748","-0.0892591","-1.81924","2.07321","0.148615","-1.77473","-1.69215","0.847647","-0.0211175","-2.306","1.48775","-1.25074","-2.25314","0.104522","-1.12133","-1.14803","-0.033464","7.33693","3.1704","-1.94761","-1.29795","-1.29448","-0.55822","0.0553496","0.104393","1.04403","-1.075","1.03792","-3.36189","5.0765","-0.335576","0.773288"],["0.33525","-0.0321487","0.199636","1.23031","-0.0780106","-0.44757","0.162984","0.450414","0.947948","0.10166","-0.592116","-0.501138","-1.62995","-0.447692","-1.66583","-2.01379","0.190273","-0.482088","3.59288","0.188544","-0.626303","-1.51564","1.88677","1.93119","1.92355","-2.18156","-0.866805","0.574719","-2.6317","-0.295852","0.756012","0.448529"],["-0.0337099","0.754594","0.874903","1.48503","-1.77827","1.58116","0.486135","-1.01759","-0.97359","0.415665","0.250179","5.31024","-0.218195","2.77437","0.727218","-1.15329","-1.63669","-2.77859","0.400891","-0.924416","1.00713","-1.20583","-0.902727","0.806784","0.235252","-1.08388","-1.85148","-5.21535","-0.264091","-0.579513","-0.697545","1.23877"],["1.32587","2.02748","2.00823","0.574553","-0.815115","-0.429372","0.742072","-1.58996","-1.66452","0.169688","1.66545","-10.8811","0.242648","1.24124","-1.92368","1.39246","1.43378","0.402178","0.749146","-3.0832","3.31845","1.12943","-3.03604","-2.91431","0.296719","-1.05654","-0.668078","-0.252221","1.61557","1.28859","-2.79429","2.10598"],["-0.517848","-4.68939","-1.46908","-0.655849","-0.840372","-1.56813","-0.130646","0.622932","0.855757","1.28891","-1.73627","-1.16676","-0.508695","0.925478","7.51622","3.31301","0.852426","-0.893925","1.0674","-1.40305","-0.11803","2.65895","2.41787","3.10202","-0.241988","-0.650983","-3.12412","-0.245462","2.30108","2.07203","0.399268","2.38889"],["2.32162","-0.0162077","-0.0579131","-1.50218","4.00078","0.842383","-1.46888","0.14685","-0.554426","-0.246505","-2.26368","-0.62167","-1.34275","-0.294028","2.02465","1.86516","0.36362","-1.3594","0.31824","-0.177089","0.679739","-2.61968","-2.55271","-2.27614","-0.880762","-1.09395","-0.0287634","-0.810245","1.26845","-1.82331","-0.379537","0.740624"],["-1.16174","-3.59759","-0.661133","0.481796","0.126062","0.517064","-0.402766","1.16074","-0.464891","1.96206","0.635118","1.33303","0.814027","1.19745","0.438457","2.42662","0.146555","-0.0972165","1.00314","-0.353144","1.30836","0.169641","-0.505528","0.788892","1.30524","0.153061","-1.71512","1.16865","1.61797","-0.0503585","1.73523","-1.3518"],["0.115184","1.87893","0.367767","-0.000682525","-0.498695","-0.905793","0.714578","0.0363381","0.0519289","-1.20821","-4.47169","2.70503","0.103887","3.29517","-1.36883","-2.94731","1.0642","-1.57866","0.0898836","3.36022","0.28567","-0.387932","0.439108","-1.64819","-3.07228","-0.650353","0.225277","-0.987871","0.897035","-0.240646","3.16881","0.00523001"],["4.45755","0.379901","-3.7179","-2.61341","0.359373","1.60987","-1.52889","0.503175","1.13285","-0.997983","-1.36482","3.26019","0.857871","-1.55382","1.70743","1.32813","1.3914","0.739704","0.364549","0.858782","-5.59227","0.0358132","0.804082","-0.282318","1.58201","0.747992","-0.088988","-0.289434","-1.44193","0.21092","-2.58965","-4.60801"],["3.60861","-0.759257","-2.3504","0.658434","-1.51173","-1.13627","-0.411991","1.13757","-1.13747","3.60387","-1.1161","0.122492","1.33708","0.371787","1.04019","-0.0822148","-0.25741","-0.294776","0.670244","0.681657","-1.04378","-1.20292","2.49726","-1.9081","-2.65489","-1.61044","2.52074","-0.293886","-0.69797","-1.62905","-0.0280955","-0.0489838"],["1.1832","-0.0526585","-1.29775","-3.044","0.822381","0.22247","-1.18726","0.46594","-2.44297","1.23751","-1.38063","1.34403","-0.832041","0.500782","0.855624","0.111666","-1.46096","-0.508103","2.31618","-3.63598","2.40899","-1.38929","0.519615","-0.137783","-0.2877","-8.33461","3.31614","0.0967799","0.496647","2.68908","0.436916","-1.51159"],["-1.34141","0.514048","-9.11494","0.242426","-1.22935","-0.562405","1.27476","-3.81987","1.773","1.96666","1.13093","-0.964676","0.655343","-0.860749","-0.0747869","-2.60443","1.96933","2.37687","1.16696","-1.67586","-1.51707","0.138929","-0.314005","1.18892","3.32723","-3.52155","-0.599192","0.883948","4.02971","-1.25082","-0.583289","-1.47563"],["4.2897","0.0871346","-0.16756","1.40598","-0.744355","1.52716","1.01649","0.806174","0.0306334","-6.01985","1.82828","0.593909","-1.40941","-1.06705","1.39034","-1.5363","-4.56646","-1.83923","0.170464","0.642463","2.12948","1.97286","-1.31694","0.413061","-2.21891","-1.29704","-0.396532","0.137115","0.561137","-0.699365","-0.800353","-2.53451"],["0.0546604","0.920738","-2.16371","-1.67498","2.27508","1.93757","-1.8021","0.0468962","1.49527","0.71165","-0.943104","0.682792","1.32986","-0.211057","-3.97659","1.13795","0.747717","0.393212","0.832698","0.509152","-2.44152","0.588761","-1.42625","-0.177537","1.5408","-0.0168692","-2.61448","2.01675","0.320857","0.364425","2.87858","1.91743"],["-1.22854","3.16708","1.27291","-0.56115","1.25398","0.0700963","-0.387267","-0.926606","0.424274","-0.0837432","0.451081","0.35549","-0.308882","-0.173787","0.544375","-2.00407","0.428767","0.576221","4.87578","0.502572","-1.17022","-2.8381","-2.52097","0.344821","-0.107514","1.91981","-0.190121","1.02241","1.21335","0.853413","0.0334208","-0.0687553"],["-2.42777","-2.98496","-0.740118","-1.22744","-1.95563","-0.0930437","-1.61867","0.490833","-1.55543","0.400187","1.32584","-2.59497","-1.80106","-0.550581","-1.42206","1.29124","-1.02966","1.55308","0.529308","-0.669919","-0.305151","-0.798782","0.811804","0.269004","-1.41028","-1.0689","-0.868299","-0.0541938","-1.26669","1.00623","-1.40497","1.69171"],["-2.18264","0.835204","-1.7919","-0.751823","3.1065","-3.09618","1.16182","-0.80906","1.60341","-1.34466","-0.718031","-3.01839","0.615988","0.367758","-1.05516","7.2748","-0.64499","-0.531673","3.13625","0.924024","-1.4554","-0.120219","-1.00241","0.418066","0.624296","0.135992","-1.97354","1.10964","-1.1576","-2.68704","-0.958045","2.41627"],["0.553021","-0.413492","0.444345","0.15777","-1.77458","0.942867","0.816601","1.1638","-0.0112736","0.12196","1.98047","0.51876","1.16178","-0.115928","-1.07919","0.233263","-1.29905","0.562743","-2.83849","-1.51202","1.58593","-2.04448","0.729765","-0.121443","-2.59547","-2.13082","-0.642798","-1.1303","-0.397653","2.64268","-1.71053","-1.17647"],["-1.37113","-0.882728","-1.55051","0.553627","1.88802","0.472348","-0.359532","1.12428","1.51781","2.30742","-0.848473","0.0413716","-1.30515","-2.2425","-0.320018","2.72378","-0.639896","2.34641","1.03146","-2.56589","-0.539543","-2.44293","-2.11555","-2.10996","0.984292","0.413031","-0.628385","-0.042888","-2.06032","0.161618","1.74206","1.1232"],["1.95285","3.14348","1.79893","-2.61767","0.370142","0.00455594","0.458419","-3.6953","-0.116594","0.695158","-0.921612","0.631402","-0.4464","-0.812354","-0.040508","-0.220312","-0.09397","-0.913647","0.207559","-1.18764","1.39708","1.27904","0.899632","0.310125","1.7823","-0.700884","-0.675716","-0.321123","-0.440928","0.527073","0.383044","-0.164148"],["1.51144","-0.304101","-4.39955","3.48034","1.08834","0.952431","-0.421528","-0.974318","1.34143","-1.35989","0.745514","-0.514039","-0.812579","0.862684","-1.22663","0.270438","-0.159431","3.43414","1.10745","1.16062","-1.15475","0.790092","-1.01952","-0.685451","-4.36405","-0.239501","-1.11479","1.46494","-0.988878","1.16195","0.00766396","-2.09282"],["-0.0262478","-0.573226","-4.7163","1.56985","1.29525","-0.0317094","-1.50239","-0.306547","-0.152534","2.86258","-5.92762","0.360377","0.517753","1.56739","-0.430732","0.640127","-0.343983","-0.644575","0.706944","-0.910986","1.23443","1.28244","-0.11627","-2.51785","0.51507","-1.19489","-0.545007","1.41144","-1.10073","-1.39315","-0.697924","-1.64472"],["-0.423513","0.0967912","1.48216","-1.51428","-0.91295","0.689126","-0.530956","-0.627275","1.03903","0.441354","-1.56434","-0.84664","0.0296691","-1.09786","-0.313167","0.624664","2.96213","6.34751","3.09759","1.61866","1.59028","0.792917","0.904786","-0.0262698","-0.776478","1.29532","-2.886","2.83501","-0.0942945","1.73092","1.34257","0.150479"],["0.867073","0.261263","0.177002","-1.52177","0.0344255","-0.380463","1.02114","-0.956859","0.111224","-0.251777","-0.667091","1.31348","-2.26479","-1.38669","0.808248","2.12312","1.33504","-0.664697","-0.660066","-1.14018","-0.0350577","-0.243016","-0.79922","-1.51904","-0.158072","-0.351311","-3.57401","1.3042","-1.61703","1.16926","1.20784","-0.0431188"],["3.37815","-1.49419","0.00509361","0.733176","1.61749","0.674584","3.04286","-2.45519","2.63212","0.487841","0.222958","-0.627897","1.52809","-1.16664","-0.474199","-0.148436","1.03478","1.53931","1.07247","2.31838","0.496761","-2.59535","-0.217224","-0.336299","-2.49787","-2.29183","-0.770273","2.6435","-0.357233","1.01354","2.49835","-3.97716"],["-1.10725","0.485727","-2.25447","-0.075905","3.77413","0.0832708","-0.0606925","0.106683","-1.5934","1.33099","0.553302","0.182591","0.0145943","-2.50096","-3.50321","-2.41575","1.97441","0.813044","-1.67357","-0.674179","-0.140394","-3.41375","1.46524","-0.253861","-0.350814","2.04756","1.74884","4.0342","-2.76414","-1.36826","0.398082","-4.19779"],["-2.18401","2.24422","-1.19281","3.86228","-1.35797","-0.955963","-1.61551","0.617122","-1.50129","0.328641","1.20128","-0.465827","0.183294","1.68104","-1.71674","0.0864343","-2.80136","0.00693534","-0.398959","-0.86272","1.36535","0.683845","-1.19461","0.527271","-0.401289","0.299464","-0.041605","1.26595","1.10143","-1.67247","1.58144","3.03307"],["0.538374","1.38295","-1.16018","0.979682","1.69064","-0.127393","1.43253","-1.01854","3.8693","0.293248","2.41025","-1.55626","-0.375756","2.99679","-0.906203","-4.25023","0.605681","-0.104672","2.89089","-1.38123","1.71321","-3.90399","-0.848268","-1.39578","0.40277","0.35386","0.0920939","0.540252","-0.878337","-6.54681","2.51877","2.30559"]]},{"biasesArray":["-0.209331","3.4793","0.120137","1.37029"],"n_inputs":"32","n_neurons":"4","weightsArray":[["-0.988084","1.40595","2.02675","-2.17133","1.01008","-2.10554","-2.56626","4.83163","0.139081","0.732953","-0.665392","-0.567445","1.97143","-2.11536","2.39071","0.777037","0.309455","0.254545","0.582754","1.09122","1.68058","0.864593","-0.34722","1.17698","-0.358251","-0.771919","0.252377","3.95015","-0.78004","-1.10032","-0.537635","-0.0562711"],["1.89327","0.174392","2.29225","-0.392144","-0.99168","-0.905209","-1.5169","0.8731","2.0321","1.29053","-0.515112","1.51542","0.512371","-0.34669","-0.0310938","-0.380243","0.0401746","0.239296","-0.0826787","2.76178","-1.7683","-0.253326","-0.892948","-1.0033","1.35178","0.512399","1.55382","0.498574","-1.21669","-2.94687","1.50692","-0.577544"],["1.3276","0.596906","0.928184","-2.92718","-0.452445","0.530056","-0.0529139","2.21161","-1.83063","1.14612","1.07543","1.13483","-0.433666","-1.30614","-0.985508","0.00257113","1.29891","0.836111","0.774752","0.930491","-0.399813","0.347278","-0.930441","-0.461706","3.30583","3.21981","3.08308","1.84383","-1.34202","-2.84664","1.6619","2.10362"],["0.00012869","3.14625","1.9823","0.612559","1.39811","2.19338","-0.625442","-0.935541","1.10849","1.92995","2.05752","0.634571","0.121522","1.30062","-1.14408","-1.58363","1.65576","2.40557","-2.20495","-0.297519","2.41399","-1.42149","0.365966","-0.39595","1.47594","1.31563","-0.384773","-0.364891","3.13137","0.358287","-1.54814","-0.43259"]]}],"networkShape":["18","32","32","4"]}
