{"isPSO":"true","layers":[{"biasesArray":["0.766972","-1.08866","0.879311","-1.3616","0.358082","2.39171","-0.936394","0.111539","-0.420913","-2.08473","-2.20433","-0.895046","-0.0640312","1.02071","-0.951788","0.776008","-0.0316289","0.43111","-0.296197","-0.182056","1.09029","0.392243","-0.34992","-0.0398133","1.28041","-0.249827","1.14779","0.676238","0.00322111","-1.39549","-1.7359","0.516385"],"n_inputs":"18","n_neurons":"32","weightsArray":[["-0.258238","-2.33247","1.15719","-0.130754","-1.04662","1.66045","-1.45114","-2.06923","-0.838757","-0.642596","0.0822419","-0.411924","-0.280286","1.54348","1.28843","-0.876833","-0.500187","-1.42787"],["-0.858869","-0.601058","-0.712901","-0.0984165","0.121218","-1.32725","-1.61354","-0.264804","-0.123263","-0.566876","-0.953988","1.99048","-2.96815","0.925772","1.14683","0.643798","0.657576","-2.33121"],["0.495446","1.26334","1.30281","-0.257343","0.289141","-2.29444","0.216589","0.476135","0.0825602","-0.531616","-0.623067","-1.67556","1.23323","-1.46916","-1.24622","-1.83946","-0.48396","-0.864659"],["0.848852","0.454515","0.86564","0.971444","0.64672","1.27489","-0.644657","-0.995245","-0.496246","0.318378","-0.209643","-0.865371","-0.508801","0.340773","-0.397707","1.4938","-0.0244832","-1.11446"],["0.153868","-0.148993","0.99066","-0.287996","0.580902","-0.653131","-0.893626","-2.08087","-0.410948","-1.36505","0.0440935","0.496812","2.3404","0.537181","1.15012","0.237013","-1.96903","0.349064"],["-1.20315","-1.55332","-0.365814","-0.647144","-0.754731","-1.32198","-0.625294","0.147209","1.36458","2.08284","2.19487","-2.75362","0.199448","0.94934","1.37511","0.450636","0.466869","-0.693907"],["0.0660925","1.70452","-0.211712","-0.315637","-1.82663","1.38572","-0.430243","-1.73495","2.7492","0.128966","-0.407156","0.362697","2.35986","0.598237","1.348","-0.848012","0.0793819","0.860045"],["-0.842742","-0.483378","0.177167","-1.06269","-0.23239","0.931235","-0.529898","-0.421776","0.444258","0.845455","0.101446","0.404259","0.896247","0.870265","-0.111616","0.678565","1.0662","-0.586298"],["1.08571","0.965652","0.881274","-0.564063","0.613189","-0.476781","0.253373","-1.36871","1.05451","-1.19197","0.137686","1.08146","0.809495","-1.83736","1.12054","0.167763","-0.608267","0.364459"],["-1.61727","-2.40584","0.234977","0.891256","0.010371","0.0356906","-1.82073","0.454173","-1.54447","1.01313","0.914528","-1.08579","2.40871","-0.207933","-0.0703996","0.517748","0.102365","0.832902"],["0.803219","1.1753","-0.250322","-0.249614","0.840627","-2.02445","0.566342","-3.04914","0.164949","0.890122","-0.115309","-1.51124","0.676215","0.8594","1.12108","-0.667568","0.0805788","0.427644"],["-1.52347","0.953143","2.65154","-0.170659","-0.971871","1.87431","1.58184","-1.41437","2.65324","-0.156481","-0.455667","-0.848611","0.547027","0.974102","0.529104","-2.20009","0.0676094","-0.485941"],["0.659575","-0.119539","0.08879","0.517713","1.75365","-0.936691","0.319105","0.813815","0.286408","-1.95145","-1.29172","-0.166841","-0.731213","-2.73623","-0.911364","0.725802","-0.5989","-0.624091"],["0.605116","1.57426","3.37431","1.9445","-0.335186","-1.55084","0.0342021","0.330942","1.52879","1.75702","1.56295","-0.558012","-0.616289","-0.748446","1.84554","-0.826545","-2.67744","0.317946"],["1.64916","0.742556","-1.27084","-0.587143","-1.51548","-2.08599","-1.17843","0.901969","0.0789751","1.13558","0.330096","0.116119","-0.34353","-0.862462","0.272074","-0.321922","-0.647388","-0.691916"],["1.97758","2.8583","-0.911017","-0.0591628","2.24429","1.25336","-0.12621","-1.10552","0.162523","-1.75014","-1.35677","0.727227","0.452355","1.5728","1.6354","0.619191","0.586386","1.81959"],["-0.232308","-0.873819","-2.35265","1.40586","-0.149041","-0.0728085","-2.01972","-0.146244","0.0122519","-0.13122","-1.4783","-0.0413389","-1.14943","0.658838","0.333118","-0.097517","-0.0753145","-0.798677"],["1.14597","-0.389562","0.111376","-0.429369","-0.0596984","-0.952624","-0.59245","0.726038","0.219496","1.98534","-1.34861","2.50216","0.134212","-1.23667","0.0859987","0.596655","1.19958","-0.00830176"],["0.395745","-1.1003","0.799914","-0.429323","0.177027","1.39887","-1.73112","1.9871","-0.946228","-2.27736","-1.3801","1.60728","0.684023","-0.0263466","-0.418333","1.23264","0.539774","0.859407"],["-2.6812","-2.30658","-0.0941022","2.16746","-1.40712","0.451214","1.31031","-1.69679","0.710403","0.449243","-0.220438","2.69079","1.0204","0.411824","-0.277599","-1.74732","0.536121","0.10951"],["-1.12124","-0.934406","0.154166","2.87928","-0.000979347","0.929842","1.20978","1.01282","-1.88203","1.08772","0.281909","-1.42283","0.459736","1.34953","-0.124554","2.11632","-0.342277","0.813896"],["-1.79337","-0.476165","1.23372","0.15201","-0.390889","-1.65421","0.559791","-1.45506","2.84714","0.125437","-1.34142","2.29728","-1.70276","0.901546","0.424023","-2.86043","0.716096","-0.316351"],["-0.89433","2.93862","1.1132","-0.134311","-0.382552","-0.213186","0.406359","0.188703","1.16762","0.751551","-0.33192","0.268112","2.99348","1.2035","-0.707244","-0.261303","-1.0888","-0.656109"],["-0.393311","0.917408","0.112058","-0.554604","-2.05445","0.678944","-0.755028","0.905037","-0.119981","-0.737816","1.05864","-0.838416","0.77041","-0.796169","0.21149","0.315628","1.06632","-1.22758"],["1.08075","0.213646","0.171541","0.644134","1.77071","0.552511","1.56146","1.65276","0.392075","2.28224","2.02911","0.761921","-1.84055","0.0425043","0.191072","0.261091","-0.527903","0.260665"],["1.87445","-1.39063","-0.980455","2.41682","0.514233","0.0119056","-2.88653","1.88015","0.817964","0.891875","0.185945","-0.0130877","-0.442323","-1.35347","-0.765021","0.584797","-0.198164","-0.0615018"],["1.76789","0.885428","0.542683","1.38707","-1.91105","-0.0723855","-1.33441","0.462895","0.575878","0.275518","-1.95884","-0.398568","0.0749698","-1.44496","1.21921","1.25229","-0.194698","-0.74332"],["-0.0651782","1.16977","0.0390677","-0.471908","-1.15363","2.26419","2.20228","-1.00811","0.622802","0.139277","0.855104","-1.35063","-0.354398","-1.29268","0.921762","-1.60402","-1.28967","-1.14303"],["0.271559","-1.05014","1.44398","0.519547","-0.867111","0.72036","0.13735","0.0989827","0.127155","-1.23427","-0.354685","1.2503","0.336056","0.605313","-1.02404","0.201307","-1.46313","-0.789204"],["0.801541","-0.455591","0.263117","1.47053","1.02483","-0.930463","1.80686","1.96839","0.0654596","-0.802717","-1.44308","0.438576","1.35308","-1.85921","1.02742","-1.73859","1.99183","0.0848702"],["-2.00078","0.902782","0.48283","-0.648488","-0.197952","0.267413","1.21607","-1.56895","0.265928","-2.12807","-0.59374","1.82795","1.27851","-0.598868","-1.88228","0.829622","-1.13387","0.392425"],["-0.266065","-1.0195","0.569968","1.44498","0.249529","-0.0995567","0.871087","0.219874","-0.375368","-1.30607","-1.4365","-0.0149911","-0.801661","-0.129147","0.254828","-0.171682","-1.0746","0.178315"]]},{"biasesArray":["1.66671","-2.30004","-0.175801","1.93629","0.829861","0.198731","-1.55867","-0.606675","3.12492","-1.42381","-0.582153","1.83287","-0.73195","-1.72651","0.157025","-1.59827","-1.65371","-0.539606","-1.36487","0.341286","-0.375795","-1.32831","0.519117","-0.660732","1.06975","-0.81909","-0.713332","0.370505","1.01206","-0.350886","0.150836","0.0592025"],"n_inputs":"32","n_neurons":"32","weightsArray":[["0.340747","0.0511218","0.83296","1.27572","0.0497292","1.57358","-1.4576","-1.15059","-0.284996","-0.0581655","-0.641351","-0.169771","-0.473261","-0.566846","1.54672","-0.554194","0.333353","0.394425","-0.743069","-0.473332","0.463737","1.74672","-0.954891","-1.96393","0.815213","-0.118279","0.306611","1.50871","0.561984","1.03853","2.43567","2.19681"],["-0.849828","0.859225","-3.37298","1.14768","0.207003","-0.0708629","0.283083","1.09283","0.148317","-1.31061","1.64312","-2.31118","1.4509","1.7352","-0.440455","2.31614","2.55332","0.770585","-0.442583","0.780432","-1.83588","-1.89634","1.32061","0.1481","-0.00559133","0.239511","2.08346","-1.03282","0.366735","3.08784","-0.397598","0.3616"],["-0.670313","-0.133909","-0.594925","0.469484","2.32064","0.73655","-0.338646","0.387124","-0.130632","0.732935","2.16904","-0.0461531","-1.1033","0.938024","1.5443","-2.54414","1.28439","0.00429586","0.845669","-0.40854","0.299356","0.266311","0.992253","0.257116","-1.23694","-0.721885","-0.659975","-0.190853","0.141938","0.63747","-1.36029","-0.0866989"],["-0.294095","0.368117","-1.13278","-0.0311566","1.16447","1.30216","-1.64227","1.12388","-0.448394","-0.426978","-0.803521","-0.784451","0.961975","0.419812","1.98377","1.38116","0.481297","-0.020555","0.397317","-0.572907","-1.41279","1.14986","-2.72135","-0.110177","-0.68888","0.0986753","-0.904927","-2.06567","0.517067","1.3114","-0.593576","0.714158"],["-1.9558","1.34246","0.139588","-0.845457","1.22648","0.289496","-0.142716","-0.788805","1.38394","0.791572","0.298107","1.96551","-0.37544","-0.0547379","0.0788655","2.22461","-0.601775","-0.743495","0.583184","-1.25541","-0.406627","2.10984","-1.20778","-0.0788464","0.0168419","-0.79571","-1.1675","0.398347","-1.51099","0.0724735","0.49695","-0.69051"],["-1.22339","1.11226","0.359435","0.422177","0.299069","-0.53629","1.4172","-0.249285","0.0965447","-0.896194","0.561245","0.832282","-0.77291","0.351375","0.643168","-0.561443","-1.95433","-2.44744","-1.95289","-1.72909","0.163127","0.235783","-1.1407","-1.63645","0.824655","0.307159","-0.305987","0.144799","-0.182366","-0.275468","0.880578","-0.568366"],["0.980294","-0.476158","-1.78001","-1.34799","0.637613","-2.04438","3.09517","1.59928","-1.16396","0.895975","1.57827","-0.321556","0.350737","-1.89798","0.0170956","0.429673","-1.42128","1.04001","0.579469","1.53641","-3.25639","-0.646913","-0.748585","0.8011","0.602985","-1.86609","2.05134","-0.655809","-0.789347","-0.107586","0.195698","-1.49554"],["-0.788387","-1.04674","-0.045706","1.09487","-0.493251","0.358258","0.0768937","1.50436","-1.07487","-1.22891","0.999732","0.730346","0.363952","0.971699","-0.587649","1.53635","-1.3464","1.59322","-0.389774","-1.28474","-1.39628","-0.676771","-0.393947","1.23055","-1.35213","0.0390899","0.614579","2.53647","-0.518511","0.707437","2.2076","1.0174"],["1.394","-1.65331","-0.865494","-0.950708","0.536493","0.0211213","-0.500411","-1.09977","-1.43055","-0.341305","-0.20124","-0.680854","1.25836","1.60689","0.285436","2.07724","-0.296948","-1.7716","-1.33597","-0.797523","-0.919866","-0.826674","0.894909","0.426705","-1.12736","0.777599","0.747127","0.602954","2.83348","-0.355282","1.13939","2.16041"],["-0.138291","-0.623973","0.687578","1.56544","-0.154458","-2.09025","0.464938","-0.589467","0.381384","-0.483817","1.2172","1.38624","0.158215","1.47235","-1.25137","1.09756","2.04229","1.39995","0.88442","0.364977","-1.64698","-0.829638","2.73996","0.0342427","-0.435768","-2.11496","-0.00342736","3.71853","1.23841","0.0164794","-0.119353","-0.228957"],["-0.085696","-0.235392","-0.97541","-0.380496","0.961715","0.592865","-1.31921","2.2342","0.225978","-1.47492","-0.803072","-0.547801","1.36923","-0.935323","0.897543","-0.526589","-2.34288","0.43058","-0.91992","-0.259432","0.325344","0.0421959","0.714223","1.41747","-0.762143","-0.833509","-2.00722","-0.890021","-0.552711","-1.96281","1.078","1.41018"],["0.932328","-0.825621","-0.219346","3.92018","-3.1483","-0.807285","0.182471","0.631134","1.67144","2.43274","0.648544","0.150221","1.38237","1.13733","1.17032","-1.5422","-0.26662","-1.78282","-2.10633","0.261085","0.451582","0.587834","-0.190856","-1.75463","-0.0241143","-1.50551","1.32183","-1.3819","-0.0302379","-1.00701","0.437597","-1.04745"],["0.939139","1.14674","1.64036","-1.13597","-0.671992","0.756966","-0.37884","1.15475","1.47888","1.61254","-0.882825","-0.0541558","0.647742","0.154502","0.361459","3.55836","-0.720342","0.932233","-0.740961","-0.706081","0.560617","0.829134","-1.74735","-0.0363181","-0.395247","1.72462","0.956626","0.0371109","-1.9511","0.776726","-0.339497","-0.214732"],["0.156139","0.44763","0.365559","1.04881","-1.57802","1.22582","0.594303","-1.27448","0.446854","-2.12901","-0.0386423","0.691227","2.68501","-1.08174","1.55804","0.565395","0.359758","-0.354659","1.48826","0.768251","-0.113106","-0.542997","-1.27157","-0.691452","0.5248","-1.49524","-1.06929","-0.898782","0.171039","-1.02047","0.413059","-0.412182"],["-1.01054","1.41609","1.42204","0.42736","-1.7748","-0.666841","-1.38023","0.831088","-0.342604","1.07763","-0.86107","0.382861","0.419449","-1.68524","-1.19451","0.689242","-0.0270381","0.70102","-0.276077","0.344288","-0.744019","1.00343","0.269627","1.56788","-0.202417","-1.55963","0.839592","0.105937","-1.30703","1.8801","0.687211","-0.760029"],["0.927802","-0.91304","0.698187","-2.25463","-1.14901","-1.41322","-0.568658","-1.32466","0.931959","1.72655","-0.259643","0.648112","-0.81346","1.00115","-1.15548","0.238281","1.16822","-0.594582","-1.3168","-1.45553","-1.42575","-1.62219","-0.103412","1.44827","0.0386003","1.65343","0.177503","1.35618","0.839207","-0.91467","-0.0957973","0.643418"],["1.69712","-0.885872","0.179501","-1.25458","-1.62766","0.903924","-1.50175","1.67151","0.187531","-0.117062","-0.432437","-0.388423","-1.63201","1.62558","1.76098","-0.450031","0.267224","-1.45475","-0.246516","-0.783203","1.19557","1.70604","1.00332","0.993843","0.497607","-0.118571","0.0677459","1.61201","0.971305","-1.23783","-1.50083","-0.964142"],["0.733764","-1.17653","1.50127","0.711093","-1.82827","-2.2644","0.0356371","-0.483892","1.26516","-0.200298","0.659277","-1.63662","-2.32941","2.27361","-0.82796","-1.01099","0.202149","-0.462465","-0.467922","1.25686","1.34834","-0.171988","-0.258399","1.57018","-1.45998","1.56196","0.460828","-0.14795","3.20265","-1.30808","-0.131465","-0.222174"],["1.12678","2.19976","-0.534238","-0.985962","-0.411093","1.17438","1.18834","1.66173","0.859989","0.141178","-0.365404","1.24091","-2.06522","-0.664477","-1.12657","-0.357665","0.790071","0.93928","-1.58497","1.65345","0.44747","0.402433","-0.677382","2.01154","3.10681","-0.423626","-1.18927","-0.0794163","-0.34881","0.354761","0.846921","-0.482215"],["0.162142","-0.207112","-2.01741","-0.952207","-0.509359","0.790304","0.345704","1.13544","2.80751","0.285353","-2.08653","-0.127511","0.584542","-1.67823","1.08796","0.697239","0.875341","0.0180346","-0.903155","1.93186","-0.152081","-1.63813","-0.188426","0.64434","-0.0311567","-0.0726152","1.5221","0.917343","-0.276959","-1.73407","-1.00186","1.98593"],["0.319939","0.16061","0.0431078","0.0634955","-0.81621","0.466983","1.2497","1.34106","-1.41721","0.749182","2.50793","1.30974","-0.243959","1.26436","-1.68142","-0.184184","-0.490737","0.266135","-1.164","-0.85","2.20927","1.59293","0.0422142","1.1634","-0.898597","-2.78067","-1.46878","-1.00049","1.59095","1.56655","-1.32445","0.0964747"],["-0.889844","-0.721191","0.5969","1.05536","-2.30818","-1.23414","0.186304","1.01823","-0.433426","-0.210398","-0.462745","0.652028","-1.98499","0.680115","0.28133","1.89707","-1.97779","1.31006","-0.10523","-0.337383","-1.83292","1.81708","0.665455","-1.45362","-0.221881","0.381515","-0.465282","-0.827101","2.03086","-1.82246","-0.0767573","-0.175868"],["0.184063","0.812428","1.34567","-0.387188","0.0508391","-0.348247","1.39627","-2.10091","-0.553065","-1.02145","-1.66018","1.74511","0.0919044","-2.04052","-0.270762","-0.097446","0.531301","-0.107499","1.18604","0.0966594","0.80789","-1.26078","-0.291204","-0.342439","-1.83896","-1.97047","1.25005","0.869815","-0.509334","0.268258","0.952558","0.707042"],["0.37936","2.17019","-1.31324","0.425222","-0.142384","-0.739803","-1.26321","-1.48689","0.102564","1.59846","-2.10915","-0.601417","-0.490695","-0.0807179","1.02968","-1.18307","-1.16008","-0.78038","0.22692","0.503753","-0.619255","-0.0867212","0.824861","1.21741","0.644543","1.12389","-0.10795","-0.790854","0.863396","-0.404082","-1.65513","-2.96494"],["-1.12915","-1.46929","-1.65359","2.00375","-1.51107","1.06332","-0.00564757","-0.395297","1.07596","-0.735598","-0.872032","-0.938026","2.51085","-0.548724","-0.892113","-0.995743","-0.0832502","-0.118746","-0.521508","-1.89596","-0.587322","-1.40688","-0.98614","-0.24735","-0.237583","0.348502","0.000363736","-0.766667","0.367477","0.010932","-1.39358","0.748173"],["2.2213","1.47756","0.960257","1.82407","0.197841","-0.638818","-1.12802","1.12342","-0.425659","-0.62785","-1.28881","2.114","-1.74677","-0.782002","0.347747","1.39351","0.456823","0.502551","2.16943","-1.5783","0.609532","0.722818","0.540963","0.914307","0.42054","-0.0362854","1.45506","1.34835","0.889731","0.0844519","2.45402","0.0879583"],["-1.32464","-0.578041","-0.0610689","-0.333339","1.64368","1.78146","-1.69524","-1.4871","1.22327","0.704508","0.808845","-0.677322","-0.984089","1.36921","-1.03815","0.642749","2.48662","0.463883","0.200022","-0.585521","-0.177278","0.928828","-0.232536","-0.304312","-0.0179009","0.499078","-1.41391","0.921702","0.749354","1.47492","-0.1406","-0.751604"],["0.122301","-0.324911","-2.38847","-0.0196179","-1.57537","1.55073","0.617303","0.163137","-0.537456","1.52739","0.811573","-0.773467","-2.26306","0.103233","-0.241364","-1.0252","-0.379028","0.776596","0.0803546","1.43791","-0.440035","-0.921842","0.748743","1.8064","0.518583","1.61786","-1.61078","-0.00285187","-1.28346","0.909304","-1.4475","1.43812"],["0.756139","1.31599","1.86092","-1.25753","0.893061","-1.57503","1.61724","1.81233","-0.356984","-0.626374","-0.081795","1.33958","0.223847","-0.203124","-0.435567","-1.70676","0.735274","2.71809","1.21998","0.394857","-0.987927","0.467508","0.10168","-1.55105","2.03603","-0.605725","0.329015","2.71093","-1.12194","0.653738","-0.274504","-0.117787"],["-1.62381","-0.140616","-1.29086","-1.23888","0.294081","-1.99865","-0.424521","1.11392","0.569562","0.796228","-0.460611","-0.370973","-0.825229","-1.53704","0.0953394","1.54453","1.24595","1.4624","2.52826","0.743533","-1.06963","-0.347407","-0.696089","0.105517","-0.743569","-0.778241","0.0898793","0.296097","-2.08417","2.5925","-0.151297","0.00404742"],["0.87341","0.452196","1.23418","-1.48771","-0.313533","-0.63082","-1.3247","-1.54","-1.53763","-0.67677","-1.11766","0.71693","-0.406303","-2.08727","1.04667","-0.473731","-1.94951","0.511644","0.968278","0.848707","-0.400688","-0.706959","-0.473259","-0.846124","-0.838965","-1.55372","-0.412754","1.54851","1.53492","2.8069","-2.08494","-1.84176"],["0.319027","0.960028","-0.0302587","-0.705881","1.08912","2.21614","0.831675","0.980033","-1.00355","-1.94366","-0.593197","-0.0197182","0.564138","0.701096","0.014513","-0.803076","-2.5447","-0.69001","1.013","-0.617785","-0.711384","-0.957535","-0.521067","0.541852","-1.53637","-2.5056","0.281712","-1.19713","1.03961","-0.805664","0.719805","0.0718603"]]},{"biasesArray":["-0.653599","2.59659","-0.418859","0.0388504"],"n_inputs":"32","n_neurons":"4","weightsArray":[["1.10485","-0.216044","-0.598659","-0.694376","0.260658","0.306618","0.340962","0.607385","1.06933","-0.513737","1.36881","-1.89532","0.342117","-1.19281","1.07906","-1.38451","-0.897935","-2.10537","0.684201","-0.964265","-0.601673","1.01553","-1.70794","-1.04644","-0.681942","1.55454","-0.349374","2.02968","-0.306449","-0.19924","-1.10778","0.81785"],["-0.634787","-0.385985","1.10298","-0.112961","0.063722","-1.90291","0.28542","-1.69058","2.23962","-1.18853","0.859361","-1.36072","-0.962662","-0.0710746","-1.32728","1.83826","-1.43686","-0.0709393","-1.17123","-1.99682","0.552535","-0.929593","0.427619","-2.03844","-0.326686","0.204196","1.07456","1.54863","0.646441","0.0541787","0.332696","-1.83335"],["-0.346863","-0.646665","-0.311097","0.869969","-0.136352","-0.866756","-0.160498","0.936705","-1.02404","-0.746609","1.39808","0.420952","-0.298574","-0.170279","-0.0860805","-1.30442","0.0521395","-0.427363","1.49049","0.826807","-1.45407","-0.967124","0.114304","-0.520374","0.888403","0.476833","-0.312105","-0.182353","1.66343","-1.21574","-0.382199","-1.12858"],["-0.732166","-1.66652","0.592472","0.985835","-0.0286126","0.665126","0.936927","-0.0189424","1.16302","2.08313","0.346526","1.15474","1.09885","-0.269947","-0.685153","0.38375","0.975967","0.948229","-0.763147","0.0705691","0.318136","-1.08094","0.818909","-0.390059","1.11487","-0.458074","-0.16606","-0.922769","-1.15304","-1.47404","0.508981","-0.403188"]]}],"networkShape":["18","32","32","4"]}
