{"isPSO":"true","layers":[{"biasesArray":["0.399298","2.30527","-2.9232","2.02001","-3.39817","-3.17395","1.96373","-0.463808","1.05883","2.13732","-0.280048","4.97304","1.49856","3.36435","1.4342","1.60895","4.03766","-0.263549","-1.8434","0.312606","0.364138","0.922667","-1.86823","-3.5589","-1.00551","-2.46693","5.23413","0.963003","-3.53461","1.30537","-0.525453","1.73318"],"n_inputs":"18","n_neurons":"32","weightsArray":[["-0.98895","2.2785","-3.00759","-1.84177","-0.629981","2.67055","-0.349716","2.64126","4.70722","-2.4428","-1.84508","-1.23193","-2.49202","6.36867","2.04105","0.359824","3.89112","-2.47212"],["2.0927","-0.0978286","0.762951","-0.785955","-5.45541","1.07243","-1.06946","-2.36868","4.47886","-3.29704","-0.573809","1.33743","3.07505","-1.69274","-2.36433","-1.99466","-2.67734","-2.15547"],["-2.02607","0.10337","0.962609","0.559888","1.20845","-4.03342","4.47704","0.657157","-7.30542","-0.315337","-2.32759","-3.8682","2.94316","1.04832","1.31082","-1.99826","1.02452","-5.65619"],["4.9589","3.47908","-0.805131","1.36401","1.84839","-2.25665","0.0368436","0.411375","1.41754","1.7171","0.255002","-0.776855","0.423683","0.608539","-1.29952","-1.16555","2.82519","-1.08909"],["4.10123","-1.55432","-1.87022","-1.9698","0.187597","0.374462","-3.70629","-2.41921","-1.29531","-1.8554","0.936349","-2.43583","-5.30976","-1.95889","2.1285","-1.45942","1.07788","1.26734"],["-3.00065","-2.4791","-0.58879","1.74622","-1.17453","1.85713","-4.3689","-2.18221","3.34063","0.131673","-2.38763","0.0103116","-2.63733","-0.704478","1.76499","-4.52556","4.09811","2.67309"],["3.55015","0.058989","2.63179","-2.54108","2.11527","0.696071","1.40985","0.930406","-1.05928","0.0577013","1.85565","-6.3365","1.02291","0.635325","6.55759","-0.370029","-4.26006","0.79032"],["1.98899","-3.87211","-2.79247","-0.334244","-2.78822","3.81577","-2.36952","6.18737","2.98258","-1.71137","-0.703734","1.03766","-0.643176","0.415259","5.21629","-1.64565","2.66917","2.81157"],["-5.43737","6.07863","-3.2285","0.661053","-0.802337","4.21353","-4.87222","0.0878248","1.7793","-0.206649","1.3837","0.842418","-1.71404","3.17134","6.97682","2.33067","4.05861","5.79036"],["-1.25744","2.74421","0.82689","-5.32008","-1.97923","0.411347","1.55212","-5.97881","3.28052","-1.53585","3.0152","1.93522","0.551552","-3.00169","-0.409606","3.67565","4.77148","-6.70623"],["0.672583","2.3825","-2.1267","-1.781","-0.465779","-0.0107538","-0.633962","-0.351643","-3.02325","-0.463591","2.13366","1.1068","-1.59156","2.98401","0.381939","2.33949","1.28099","-0.643564"],["0.0269593","-0.866722","0.613957","-0.332118","-0.994406","2.14202","-3.5369","-2.95082","-3.13054","3.45676","-1.7","4.81707","-1.91686","0.849407","-4.93998","-0.0508185","-3.41174","2.54594"],["0.613744","-2.43191","2.97117","0.836439","-2.11358","1.46721","-4.40983","2.23874","2.7666","3.65192","-1.08837","-0.967955","4.22225","-0.979854","4.19366","-2.77597","0.195426","-4.62139"],["4.67474","-1.84681","-1.40667","-2.24284","-0.540141","1.31412","3.38316","-0.0728157","0.328863","2.30003","0.0314396","0.0085141","2.96114","-2.77256","2.30564","-1.4271","-0.722115","-0.294285"],["-6.94581","4.63832","-1.12291","0.0852067","-0.253677","0.220923","2.05254","-3.89827","-1.11583","-4.0489","0.0947193","1.87317","-1.15935","-3.6751","-4.44519","-0.0391757","-6.21592","1.16328"],["-3.14622","-2.18543","3.67806","-4.38411","-0.299502","-1.48209","-1.4086","-3.36145","3.29153","2.9296","2.36682","-6.20549","-0.972299","2.38925","0.264338","1.64016","-0.201002","-4.70881"],["0.151961","-4.68947","-1.08319","1.99746","-3.49084","-6.119","2.00585","-2.02059","-1.78664","-3.52356","2.39009","-1.66527","1.33214","-2.82605","0.571204","2.13026","5.35781","-1.64842"],["-1.73021","-1.75039","1.79496","0.487558","2.69668","0.488133","4.77414","-0.389535","-3.91016","0.831759","-0.913122","4.77187","-1.03973","-1.72077","0.629379","-1.53476","-0.873587","-4.8067"],["1.44112","0.451619","6.67315","2.48332","-0.825213","1.05862","0.401152","2.80224","-4.57569","1.03057","1.41627","-0.566067","-1.69422","-0.848476","-2.97278","0.375686","1.25951","-0.0497628"],["-2.35489","7.11598","-2.23085","0.00527795","-3.54461","-4.0105","-0.438047","-1.21275","-4.29803","-1.22044","-5.58875","0.0750888","2.05662","-2.85104","3.21235","-2.77537","-1.7886","4.32876"],["4.47078","0.173335","0.426514","-3.69188","3.18535","-2.43621","2.82902","4.73447","0.324513","-2.95508","-3.4667","-1.9512","0.872603","-4.36064","-1.7863","-0.553757","1.32296","-3.0202"],["-0.0940501","-1.56236","-4.46417","4.52611","1.12156","-3.50848","-4.32891","4.27399","3.59859","-2.15639","-3.70821","1.72816","-3.75753","-3.58281","2.62343","2.64064","3.05713","0.335265"],["4.65248","-1.00106","-2.3714","-2.45267","-2.54572","4.15926","0.692804","2.10027","-0.342791","-6.99311","-1.58601","0.872441","-3.81585","-1.2579","2.83549","-3.35957","-0.723276","-1.91313"],["2.0016","-3.84488","-0.872236","-4.71485","3.96236","2.75356","-4.29293","-2.1888","-1.18705","2.09858","-1.26782","-1.78593","-6.00045","-1.61147","-1.52974","-0.22206","0.659874","5.15201"],["2.20885","0.138719","-0.710617","0.851346","3.35479","-2.56659","4.01637","-0.600944","2.75814","1.40686","-1.12987","2.57325","0.148374","0.902765","0.531535","-2.51784","2.39187","1.67467"],["-2.4108","0.949198","1.9049","0.452704","2.91421","-0.679211","-0.485494","2.78811","-2.07448","1.30625","-0.13026","3.57066","-3.36843","-0.526833","4.15791","-4.29596","-3.35079","-3.40865"],["-0.989631","2.33195","1.49424","0.577074","-5.47602","1.17539","-0.994027","-0.376595","-1.25031","-0.459049","1.51939","-1.48381","1.66983","-1.17253","-5.22565","1.14439","0.453366","3.23401"],["-3.54309","1.10758","0.334333","2.61208","-3.64616","-0.35591","-4.82837","-0.6554","0.468597","-0.889185","1.54739","-0.466476","3.05003","-0.851319","0.0688879","-0.0779077","1.5447","1.64603"],["2.90775","1.85108","2.84397","-1.0519","0.229247","0.405717","-1.53281","4.22014","-2.51006","-1.17756","1.62314","-5.88903","1.38376","1.41982","0.905809","3.70688","-1.64191","-5.01062"],["0.91375","1.07009","-1.42632","-0.923412","1.059","-2.11191","2.36761","0.0861419","4.22167","2.37401","-2.11203","2.28357","3.73013","1.56765","-1.73182","5.43164","-1.33944","5.21013"],["2.47616","1.822","1.75088","1.45635","-0.350647","0.70153","-5.87632","-2.50742","3.59356","-3.2961","0.603837","-1.59951","-2.18912","2.35354","-0.18221","1.47592","1.26507","-2.2337"],["-6.23398","2.70161","-1.98762","0.592472","0.867516","-1.2217","-5.57361","6.58096","2.35001","-3.21534","-1.97509","1.33956","2.597","-5.09461","2.25827","-2.33441","-0.880164","-0.561152"]]},{"biasesArray":["-0.309369","1.63715","2.90534","-0.968544","-0.223686","2.02839","0.960557","-0.391387","-2.54751","2.51197","-1.49516","0.696214","0.192367","1.62634","0.0569474","0.075144","-3.14545","1.94685","-4.94862","0.28158","0.421359","2.0224","2.75784","-2.82236","0.737798","-2.87327","0.599671","-2.02162","-1.28512","-2.5779","-4.61873","-1.11289"],"n_inputs":"32","n_neurons":"32","weightsArray":[["2.00066","1.04651","-0.945215","-1.80181","0.321381","1.41899","2.08453","0.0940889","-4.53817","0.0887432","-1.83402","2.9026","0.134831","3.1164","1.26387","-5.42253","-2.87398","0.900523","3.49613","-0.238356","-0.727116","2.94753","-0.641117","-1.12548","-0.434571","0.827029","1.79003","-2.77257","0.00138939","1.40787","2.25246","-6.42414"],["-6.2017","-0.804593","-1.25665","3.51969","-0.188286","-0.105575","2.26566","-1.91963","-0.140631","2.43308","1.54841","4.23449","-0.0160048","3.54454","-2.72246","3.35306","-0.00579685","-4.08271","-5.34072","-1.12092","1.71187","-1.05292","-0.765301","0.880977","1.07455","-4.57495","5.60644","-3.63393","-0.866346","1.62958","2.62883","-3.49734"],["1.43041","-1.20484","-2.05618","-0.684929","3.50565","4.75564","3.40322","-1.38153","-0.727914","3.38627","2.96702","-0.720221","-0.704744","1.6532","0.187798","-1.39415","1.7832","-0.210257","-1.84412","-0.885232","-1.34561","1.93179","-1.59","0.85295","-1.23869","-6.44065","3.23178","-0.196907","-0.350044","-0.54744","1.01092","-3.73204"],["0.483201","2.70568","0.204322","-2.8291","0.826857","2.40037","1.42691","1.27847","-0.72735","-2.52702","1.32709","-6.273","3.10775","-3.1352","-2.51658","-2.29845","0.302175","2.46579","1.84786","4.38418","0.22895","-2.15394","0.170982","2.14044","1.44264","-1.76529","-0.98222","0.509809","2.2515","-1.02235","-1.0809","0.789751"],["-1.20698","1.02353","-1.61472","-4.94973","-1.34226","1.1505","-1.08196","0.883984","-1.64734","-3.42702","0.486542","-3.63833","7.91254","2.42105","-1.21506","-4.14036","-3.71461","-2.91022","-2.60785","-1.42513","2.98471","2.37238","-2.11535","-3.82233","-0.937855","-2.16321","0.686011","0.950321","2.19783","-1.88726","-1.51272","2.71444"],["-4.39737","-2.13233","0.135123","1.61485","3.80542","1.57771","4.26004","-1.10513","6.16045","-3.67546","2.51439","2.90654","-1.13788","1.72398","-0.937018","-0.0770317","1.01306","1.6238","-0.37136","1.12993","0.652238","1.07047","5.9899","-2.47372","-0.630204","1.88873","3.92153","-2.94823","-2.4895","2.78782","0.940263","5.07343"],["0.332046","-3.97951","1.821","5.18687","-0.010643","4.07113","3.06778","-1.51326","-2.37231","-3.66092","-4.3386","2.70905","3.416","-5.62119","-1.99434","5.12297","-1.77607","-1.85837","-1.12795","2.2978","3.53923","0.244359","-3.17542","2.68848","-1.47592","0.00987024","-0.881464","-2.22341","-2.58978","0.47875","-2.14224","-2.05197"],["4.2121","-0.143084","-3.22089","-2.53408","2.62384","0.909621","-0.527341","-2.18369","-1.89415","1.88463","-2.1874","3.4554","2.90421","0.822816","-2.35159","-0.404432","5.69617","-5.22154","1.85277","1.18878","-3.4585","-0.00144441","-5.16598","0.460365","-2.74898","0.984459","0.436395","1.6897","-0.66539","-2.03966","-3.11741","-2.39808"],["5.21427","-1.72875","-0.332579","1.64286","0.458192","-1.46855","-3.16868","-1.72576","-3.73804","-2.63164","-0.105247","-3.36351","1.6554","2.20259","-4.9569","3.7457","-3.89285","-0.727149","1.95869","-0.645592","0.352481","9.10145","-1.2945","3.50104","3.57932","3.76134","-3.95996","1.62517","-3.97872","1.03289","0.918144","-2.05328"],["-0.105515","3.83828","-1.9783","8.18064","1.12029","-4.5494","0.301011","2.81626","0.0415623","0.590691","-1.0141","0.00600865","-1.53235","3.9862","1.689","3.18621","-0.59049","4.69463","0.411663","2.88428","2.15373","7.11026","3.73589","1.07749","0.532422","-1.67335","-1.98855","1.57484","-0.813575","1.99916","-2.90302","2.99766"],["3.84048","1.46619","2.35755","4.5351","3.09508","3.94031","3.27837","4.12805","-0.980062","3.96247","-0.7414","3.85969","2.43925","-0.393676","-1.92617","-3.24289","1.3671","2.65658","-1.76868","-4.87424","-4.93559","-1.05773","2.97845","0.779084","-4.69424","-0.452302","-3.1805","1.00664","3.08032","2.59714","-2.6702","-2.85439"],["-0.926724","-1.9828","-4.06696","-2.29003","-0.112337","0.168592","3.30899","1.971","1.05038","-0.150056","-4.67704","-1.03781","0.301105","-1.93134","-0.59648","-2.85421","-8.69377","2.34172","1.20427","-0.700729","-1.69503","-3.42699","2.10088","2.33951","-0.0966495","-1.83018","4.66805","1.56116","1.75338","-3.73403","-0.215199","-0.902738"],["-1.16669","4.90041","-1.93971","-3.19131","2.73257","-0.37699","3.46065","-0.380963","-4.63111","0.077813","-3.14307","-0.240805","0.728067","-3.56516","-2.28619","-2.67479","-4.5083","0.396961","4.26706","-5.03449","-2.4104","-3.70785","1.70148","-1.3607","-1.3536","0.600978","5.30565","0.740779","-0.136485","0.615819","4.88444","-2.97872"],["-2.85889","3.87915","8.77485","-1.08001","3.23764","-4.26482","-0.103706","1.86634","2.12684","-2.72462","-4.61783","0.310773","-3.01837","1.35288","-3.11293","6.78166","-0.540555","0.424196","3.62515","3.34888","1.02112","1.56362","-1.54135","-1.10666","0.836494","-3.92689","1.40128","2.65476","2.20794","-2.83344","-4.98138","-0.245231"],["0.30597","1.04736","-1.94644","-4.19614","-1.27023","0.905993","0.572582","-0.814033","-1.37292","1.93451","-0.566824","-1.41352","-3.65764","-0.357295","-2.00916","-0.605311","-4.83186","-2.50265","-0.572033","-0.707347","-2.4176","0.915974","6.97387","-1.80317","-4.61332","-2.55135","-5.92197","-1.08601","1.49354","5.4911","4.58013","0.801911"],["0.731398","-1.36165","-0.100684","0.957174","0.977081","-4.66523","-5.27305","3.17599","1.04874","-2.76518","5.01261","-2.0598","4.35692","0.831547","0.467446","-3.49489","-0.797411","3.08756","-4.91844","4.14629","1.95985","4.79825","0.203925","0.967115","5.02458","-0.197652","-1.69031","1.61132","-4.03755","0.754226","2.21515","4.08885"],["2.20232","-4.43985","4.76981","0.411139","-0.0723812","-1.33768","0.988769","-6.02008","1.44135","3.82609","2.30937","-0.735948","-0.102996","-4.00134","0.570851","-0.116994","2.91338","-0.700435","-1.0142","2.55337","-0.0760931","0.595597","0.977742","-4.23264","1.11725","4.93478","0.29237","-1.94933","-0.287637","0.217076","-0.322125","-0.458971"],["5.76183","1.97035","3.81335","3.36773","0.188883","-3.30368","1.66177","0.0695888","3.80474","3.88223","-1.84573","2.08435","-3.72845","-0.41121","1.1756","3.50176","-1.47909","-0.563279","2.71132","2.02372","-2.38421","-2.02783","-1.92644","1.17907","-0.368753","-0.43249","-0.479049","4.20581","1.19375","-4.25556","2.58791","0.333624"],["-0.306079","-1.0886","-3.31068","-2.52015","-2.05768","3.3094","-2.19909","-0.63501","-1.25111","-3.41777","0.749402","-2.32891","-0.960394","3.00755","-2.02302","-1.2149","1.93076","-0.390454","1.95265","4.95992","0.479133","4.26316","1.17291","-1.82893","1.23715","-0.178629","-4.94253","-1.18892","-0.781418","5.32407","1.11194","-2.31705"],["-0.586944","-3.04008","0.222766","1.34921","1.00619","-2.73379","-3.74388","2.62349","-4.65881","5.51457","-0.302027","-3.47767","-1.87198","1.97576","-6.45578","-0.511725","1.6977","-2.71622","-0.245535","-1.7752","-1.67909","1.10505","-6.13818","-4.14419","1.6461","-2.32454","-3.91583","-0.294481","4.28187","1.59487","-0.563779","-2.99796"],["1.43634","3.63973","1.38158","3.03249","4.09797","1.94429","4.88189","1.06389","-2.62966","1.12307","1.75332","0.217939","-1.96007","-2.74157","0.784083","-2.20232","-2.55726","3.29518","-1.18206","1.09494","4.06834","4.82174","-2.47","-1.78489","2.29626","1.99606","3.93777","-1.32333","-4.43822","-4.42922","-0.476076","-1.01778"],["5.41208","-3.38666","4.66348","-0.0466695","1.35615","2.94473","0.680053","2.44544","-5.28891","2.08112","6.00264","0.398747","-1.0011","-0.0113422","3.72068","-5.39625","-3.27956","3.95708","5.15979","4.83902","0.830831","1.43885","1.60488","-0.947006","1.89936","-0.867894","-2.278","1.63174","3.10519","-2.61517","2.558","6.29581"],["-0.175733","-1.01871","2.90265","0.975137","-3.96772","1.29438","-0.0893632","-0.970573","6.37329","0.116922","-0.789364","3.97902","-5.94944","1.37025","0.251922","4.88199","-4.75506","-3.77177","-2.99045","1.76024","2.79217","0.252623","1.64759","3.15305","3.89428","-5.61881","-3.05909","0.170908","-3.7629","0.773608","1.05167","-1.8764"],["0.262494","-3.3972","4.88184","-1.12804","-4.22089","-1.11137","1.80165","2.0801","-3.65866","0.419176","-1.88502","-2.51376","-2.17384","-0.757397","-1.79171","-2.11504","1.94285","2.47203","-1.9987","-0.409142","0.664829","-0.0299898","-1.74986","2.89969","-3.05232","-3.57738","2.08098","0.702499","0.675685","2.02625","-0.653879","1.79573"],["-0.0618966","5.03139","6.17233","0.285526","3.62221","2.05761","1.91151","0.561428","-5.53304","1.39364","4.46817","1.07099","-1.30051","4.8286","0.215729","3.87803","2.90572","2.48368","0.826123","-1.45166","-3.71863","-2.24453","-2.08824","2.25256","-2.06601","-0.665975","-0.126669","2.44001","0.295592","-0.939277","-4.591","5.43867"],["-2.06145","-2.09769","0.375114","1.57972","0.387914","-3.17692","-0.831266","-1.52571","-1.42896","-2.02862","2.19668","-1.21994","-0.0387074","4.19985","-1.4933","-0.966108","-2.60832","-0.737209","-2.30414","-0.4042","-1.52225","0.344337","-5.25443","1.19446","2.24027","-1.19082","1.69806","-4.41859","-2.76872","-0.0103433","-5.95028","2.51923"],["-2.06059","-5.86335","0.143589","-0.162446","-4.89668","3.66587","-4.15659","-5.69952","1.8901","2.59793","-4.64916","-2.35017","-0.428713","1.49993","1.37368","1.28825","1.7432","-2.34898","-0.807558","-2.13324","2.84364","0.919384","2.98941","0.596034","-2.36724","-3.69941","-1.3727","-1.69904","-3.18911","1.78889","-2.12175","0.281927"],["-2.41435","-0.381454","4.45031","0.935781","-1.29151","-0.704657","1.02801","2.08239","2.20394","-1.0747","-4.74401","2.33962","0.504298","-2.54271","7.65186","1.39634","0.863341","0.566263","0.81872","-2.28297","4.68234","4.20061","2.94748","0.423484","-3.68889","-0.205724","2.06427","-1.37334","-3.83617","1.11804","-0.73074","0.757231"],["2.76958","0.633317","2.07558","-0.483426","1.01477","4.55799","-0.373751","-1.93426","-8.31467","-1.19153","-1.33545","-2.32315","-2.01275","-5.67778","0.492331","3.11284","2.08666","1.65023","-4.44484","-0.431568","-3.44792","1.56127","-1.30567","-0.369678","-0.469769","-5.12554","-3.2212","2.24152","-1.29532","0.357967","0.299062","-0.785564"],["-1.74497","-2.37509","0.615946","3.61122","-0.653651","-0.0299803","0.772719","-1.575","3.735","-3.97787","3.35389","4.41646","-0.210195","-3.61564","-4.96398","4.26527","-2.54169","-3.433","-0.973815","2.48432","4.25338","4.16728","-2.00141","-3.22644","-2.01773","-4.58674","-0.138649","-1.1115","0.691212","-3.2111","-0.95316","1.2255"],["-2.11991","-3.24288","-2.2199","-2.21034","1.4904","-1.49329","-0.340721","-0.546186","-0.648281","2.65864","0.306923","1.17562","-1.73801","-4.23788","1.9835","0.125483","6.12185","2.12302","-0.411304","-1.60163","-1.14791","2.04019","-2.45661","-2.7845","-4.93898","2.57696","-0.558162","3.36664","0.575334","0.112064","-4.46206","-0.579173"],["-0.48903","-5.39764","5.74285","-8.07585","2.55618","1.32073","-2.96343","2.97255","0.659381","4.20784","-5.78608","-0.872897","0.35369","1.79549","-1.13895","-2.57556","-6.53688","-2.1922","1.74501","4.01373","-2.2593","5.01622","0.85618","1.57953","2.03682","-0.302972","-1.11047","-0.895255","-0.0533475","-1.44637","0.366344","0.696068"]]},{"biasesArray":["0.957925","0.385322","2.40048","2.92718"],"n_inputs":"32","n_neurons":"4","weightsArray":[["1.51398","0.388736","-0.759082","-3.75295","-0.726076","-3.9494","0.721669","3.82071","-4.03243","-4.7889","-0.502449","2.5981","-1.56064","-0.609243","-1.08495","1.32244","3.59172","-3.10992","-2.98185","-3.51629","0.526403","0.691796","1.48453","-0.728726","2.03236","-1.12581","-0.773933","2.48973","3.17767","0.617138","-0.874655","2.76841"],["-4.32985","-2.37378","-0.857663","3.63584","4.31841","0.222271","-1.82093","-0.184479","-1.68232","2.26233","2.13833","1.70934","8.45462","2.65669","2.71335","-3.49105","-1.26845","0.804443","3.78638","1.76085","0.174105","0.461755","-3.03464","-2.32077","1.40701","-0.329663","0.595779","-0.743416","0.990159","0.830211","1.83701","3.33724"],["-3.1657","1.78835","-1.256","-3.06575","-1.6219","-4.22239","-2.81129","3.68875","-1.97399","0.843459","-3.6733","0.292844","-3.09521","0.852337","-0.170908","5.94109","0.489715","-0.775591","-2.66295","2.22539","0.448755","-0.99349","-1.01581","-4.19035","-1.14971","-5.52584","-4.4534","-3.2027","-3.27639","-1.14355","-2.10928","2.2998"],["4.4483","2.92759","-2.40316","2.38009","-2.63498","0.708246","-1.5979","0.848194","2.79705","-4.24699","-2.8643","-0.325879","-4.34768","1.39926","-5.05834","1.09999","-1.92759","-3.1217","-2.45512","-2.8715","-0.841869","1.76088","-0.871545","4.98577","3.47599","-0.193092","-2.68808","3.11457","-1.85095","-0.315074","0.336138","-1.04551"]]}],"networkShape":["18","32","32","4"]}
