{"isPSO":"true","layers":[{"biasesArray":["1.3021","0.132451","0.493145","1.47301","-1.55259","-2.01954","2.18667","0.804906","0.252436","0.161444","-0.871052","0.827477","2.53957","2.02283","2.71511","1.74707","3.11402","1.65522","-2.61986","0.00887172","0.352795","0.16076","-1.87624","-1.31641","-1.64771","-1.29989","2.50912","0.420977","-0.77235","1.26288","-0.80443","1.80758"],"n_inputs":"18","n_neurons":"32","weightsArray":[["-3.80989","-0.0615749","0.539546","-1.46285","0.243911","-0.329096","-0.782902","-0.549066","0.169773","-0.20777","-2.22312","-2.63856","-2.98437","1.94433","0.914269","1.29883","0.10238","-2.79351"],["2.89745","2.9479","2.86639","-1.05929","-1.96532","-0.678305","-0.574402","-0.902639","0.784713","-1.6389","0.647541","-0.114355","1.80715","0.0176933","-0.00615603","-0.325313","-0.92205","0.147536"],["-2.11079","2.24729","-2.12862","0.771372","-0.887996","-1.59734","2.87432","0.284064","-3.3188","0.230241","-2.99374","-3.52386","1.14866","0.143388","0.928088","-0.487328","0.870409","-1.57707"],["2.12238","1.33406","1.71936","0.505819","-1.54689","-0.0921212","2.47744","-0.631468","1.01837","1.1859","0.760475","2.03955","0.536183","-0.454987","-0.0170639","-1.43109","2.41188","1.04568"],["1.29575","-0.452972","-0.357396","-0.201692","-1.46265","-1.07807","1.81753","-1.96505","2.58176","0.0257566","-1.05097","-2.00754","-2.58665","-3.17632","-0.650882","-1.33146","-0.988294","0.833992"],["-2.41212","-1.25445","0.271126","0.959172","-1.23578","-0.683837","-3.33081","0.894308","3.63162","0.341221","-1.92767","0.62733","-0.185876","-0.76197","2.48743","-0.784167","-0.845901","1.51894"],["2.09467","-0.532905","3.47657","-1.3605","-0.466561","-0.842766","2.39596","0.514752","-0.551732","0.4894","0.332317","-3.30666","0.0607387","0.340925","1.22262","-3.082","-3.98458","1.44924"],["1.15631","-0.10235","-3.37296","-0.133885","0.158105","-0.0776188","-1.37766","2.00851","1.00311","-1.65623","1.30182","-0.289537","-1.3978","1.00311","0.643999","-1.18614","1.47619","0.509668"],["-2.1272","1.13406","-0.986035","2.8666","0.137217","3.47819","-3.98123","-1.37616","1.77113","-1.43973","0.862539","0.485753","-0.133076","0.433746","1.60208","0.865701","4.02394","3.02047"],["-1.76453","1.14978","-1.75428","-2.68367","-0.640209","0.941788","0.254726","-4.62653","1.54794","-0.655803","-2.70406","-0.920724","3.06409","-0.695045","-0.07389","1.2707","2.18163","-3.77797"],["-0.0234932","0.125215","-2.03693","-0.633485","-0.57758","1.72157","-0.342903","0.267492","-1.22978","-1.87964","-0.219731","-0.956772","-2.42735","0.590655","-1.17055","0.762753","2.04669","-1.56186"],["-0.344739","-1.66943","0.433624","-0.517756","-0.218518","2.68373","-1.22149","-0.533232","0.372813","0.811691","-1.23545","3.1111","0.0616809","0.240095","-1.32283","-1.57655","-2.10013","1.19756"],["-0.165876","-2.75335","1.10554","1.64282","-0.997442","-0.927425","-2.40471","1.88398","0.0708166","-0.405204","-1.18518","-0.876146","2.31524","0.712624","2.5146","-2.32162","0.295552","-1.90175"],["2.02141","0.222624","-0.613835","-3.09031","-0.621473","1.49719","1.42075","0.198245","3.17482","2.38489","-0.0650016","1.74379","1.0561","-1.92132","1.85402","-3.18045","0.172298","0.565221"],["-3.28254","1.80516","-0.966205","0.230211","1.87629","0.390873","1.32008","-2.63924","1.32814","-1.03316","1.38857","-0.749874","-2.8883","1.21352","0.391992","0.883232","-4.04768","0.207853"],["-1.40935","-2.56859","0.157186","-3.37439","-0.693515","-1.39553","0.166248","-0.49818","-0.123699","-2.01627","1.57484","-3.93739","-0.498299","-0.130088","1.39932","0.155876","1.47492","-1.82232"],["-0.848972","-3.10552","-0.342892","2.27276","-2.56182","-2.41471","2.71797","-0.477812","0.282301","1.00438","0.76499","1.56915","1.98635","-3.0699","-0.26734","-1.8586","0.435793","-0.355273"],["0.220142","-1.01144","2.63291","-0.468406","-1.25023","0.434317","0.818864","0.432086","-1.12902","0.621509","-0.248442","1.828","-1.56728","-1.81958","0.0766005","0.241386","1.72599","-0.636428"],["2.09964","0.906866","2.17684","-1.04691","-1.14128","1.5026","3.10805","-0.55848","-2.37196","2.12354","-1.53259","1.56632","-1.34901","0.585349","-0.454109","1.27923","-0.898777","-1.00231"],["-3.27086","3.07057","-0.155328","-2.02903","-1.52242","-1.93582","-1.39481","-1.45001","-0.86109","-2.35635","-2.79244","-1.7681","0.0962578","-2.09705","1.90385","-0.807334","-1.95335","-0.573158"],["4.08481","-1.80594","-1.59939","-1.38164","1.69754","-1.68853","0.716342","5.42775","-0.029878","-2.28319","0.56543","-0.319698","-1.3004","-0.764926","0.707451","-0.588179","2.40098","-0.630082"],["-0.638923","-0.683233","0.25071","1.32538","0.681952","-1.66528","-1.4169","3.33179","1.42827","-1.49447","-1.13762","2.38491","-1.32416","-2.38455","2.77243","2.61231","0.544506","0.920451"],["1.27955","0.155508","0.130707","-0.772745","-1.58324","3.17777","-0.808273","0.843971","-1.28496","-5.28992","-1.26904","-0.640444","-2.20028","0.931365","2.28105","-1.401","-2.37253","-0.909595"],["0.486818","0.800934","0.573218","-0.310999","2.863","-0.252659","-0.947524","-0.654617","1.0506","0.418681","-1.16265","0.25132","-1.21186","-2.45383","1.19453","1.92938","-0.906431","1.74698"],["-0.273856","3.38601","-0.151268","1.11721","1.63628","2.11259","2.6046","0.0703906","-1.7159","2.12955","-2.01773","4.15216","-0.796071","1.61285","0.496373","-0.733438","1.98675","0.706476"],["-0.846182","-1.1822","0.154167","3.60575","0.163314","0.231887","0.0695724","-0.547197","0.806567","1.71746","-0.748715","-1.59453","-2.24407","-0.7876","3.28069","-1.37546","-2.46301","-3.66743"],["-2.92358","1.32646","1.3192","-0.131961","-3.05242","0.235661","-1.27551","0.250326","-0.9917","-0.390905","-0.0433213","-0.846141","-0.076643","-0.557245","-2.98548","-2.04248","-2.28608","0.199251"],["-0.631078","2.41439","-1.58288","0.744727","1.07746","-0.237212","-1.07724","-1.51174","-1.10554","1.28921","-1.60143","-1.88348","0.946129","-3.24813","1.09654","0.409466","2.04709","1.77888"],["1.98085","0.536779","2.16593","0.807645","2.11763","-1.04442","-3.69532","2.40972","-0.21305","0.00784703","0.289561","-3.04419","0.171315","0.734672","-2.46396","1.35811","0.560718","-0.677788"],["-0.701259","2.08919","1.32665","0.937238","0.101372","-2.81095","-1.8181","0.127417","1.54492","0.889781","1.56364","1.66688","0.893746","0.0885251","0.987897","3.70939","-0.634868","1.06855"],["0.619552","0.346168","1.034","0.255704","2.0487","0.750947","-1.21108","-0.771006","2.38244","-1.70592","-0.259996","2.26633","-1.13631","1.48144","0.770085","0.0661941","0.0966797","0.211655"],["-1.71006","0.862908","-1.04954","0.630364","2.73695","2.40118","-1.13399","3.14149","3.13646","-1.7568","-0.0254981","-0.261476","-0.0425231","-0.96975","-0.564806","2.55017","-2.82023","-0.61043"]]},{"biasesArray":["3.76976","0.976692","1.01606","-1.35143","1.0419","0.190571","0.37691","0.0299578","-0.109597","-0.797905","-1.28363","3.10692","-0.906916","1.52942","-2.73978","-0.701498","-1.07155","0.661506","-0.0378887","-0.743641","0.725147","0.933357","0.0260679","-1.59604","-1.83863","-1.32681","0.967221","-2.34215","-1.85684","-2.02049","-0.349273","-1.50071"],"n_inputs":"32","n_neurons":"32","weightsArray":[["0.615755","1.37339","0.961906","0.35556","1.37144","-0.174341","0.349941","1.46311","-4.58698","-0.575926","0.801747","0.149397","1.21477","2.78362","0.419534","-3.05413","-1.66899","2.06633","-0.309989","-0.544307","-2.16024","0.548001","-3.24133","-0.695989","1.79627","-0.965477","-0.770057","-2.36031","1.96266","3.80999","1.4194","-4.28536"],["-2.13723","-1.35428","-0.12967","2.48664","-0.0135638","2.3812","2.45482","-0.0133596","0.957067","0.784972","-0.654919","1.2793","-1.8432","1.97511","-1.29766","2.08952","0.652642","-0.0539122","-2.80053","-0.624492","-1.0302","-0.549847","-0.880418","0.518051","0.942387","-2.10978","1.10241","-1.861","-0.868167","-0.589041","3.95023","-1.32611"],["0.153834","0.684692","-0.856775","-0.532757","0.576202","3.02268","2.84151","-2.13616","2.28673","1.3737","-1.50086","3.87372","-0.469268","-0.414337","1.20945","0.815515","0.365063","0.189523","-0.406203","2.17646","-0.446423","-1.22781","1.27749","0.239217","-0.245824","-2.98008","2.51044","1.82883","-1.08583","1.25344","0.0853145","-2.55267"],["2.21292","5.40812","0.225745","-1.64611","0.783615","0.647127","1.23428","-3.03022","-1.28981","-1.67299","-2.0076","-2.29891","1.74641","-4.67871","-1.30589","-0.939682","-1.41049","1.14061","0.509008","0.237619","-1.71646","-0.932211","1.9129","-2.98806","1.46736","0.190829","0.453693","-1.19489","-1.71293","-0.628582","-2.13726","-0.600783"],["0.802498","-0.234471","-0.511183","-2.87297","-2.14349","2.6376","-0.932348","-0.097517","0.159217","-2.22759","2.06972","-0.78471","3.58493","-0.436958","0.0560655","-1.00418","-4.13715","-1.72378","-0.787521","-1.3636","1.04658","2.13461","0.240053","-2.18883","0.337632","0.808122","1.35257","-0.119341","1.08936","-1.61141","-1.03127","2.13491"],["-2.5057","-0.0307141","0.456831","0.0913846","0.871606","-1.72076","1.70313","0.337342","1.48613","-0.795622","0.974215","-0.160831","-0.357115","-2.31572","-0.817401","2.02652","0.042385","-1.06355","-0.893456","0.242944","0.409573","-1.45769","-0.519409","0.44031","1.48219","1.02914","1.59917","-1.2081","-0.265281","-0.0296304","1.98078","1.71986"],["-3.07313","-1.76172","0.951297","1.90847","-2.43542","1.91201","2.37994","0.509294","-0.441282","-2.57729","-4.91006","0.74401","1.26022","-3.42879","-0.391174","0.316666","-1.22565","0.56537","1.38159","2.1145","3.34881","-0.360393","-0.782606","1.21434","-1.82856","0.640998","-1.90363","0.312049","-0.229349","-1.65927","1.82544","-3.06754"],["0.68117","0.105506","-4.00488","-1.9428","0.514699","0.722156","-2.38428","-0.609235","0.234331","1.71066","-3.0293","0.432873","3.22958","-0.8355","-1.48332","-5.29103","3.62553","-1.40144","0.239739","0.474814","-4.69903","1.52329","-2.95415","1.38741","-2.27458","0.131924","1.25834","0.0881688","0.395968","-0.338053","-2.22456","-1.61206"],["1.95053","-1.42548","1.52026","0.128374","1.39856","-0.74309","1.6431","-0.805802","-3.22495","-2.546","0.424902","-2.70151","2.25102","1.49139","-3.81182","0.0305042","-0.523245","-1.57316","-2.00096","-0.609567","-0.255953","2.06457","0.624164","2.2386","2.15504","1.59446","-1.72171","1.91793","-3.15267","1.38701","0.841675","-0.320357"],["-0.752787","0.0379521","-3.69143","4.77065","0.729017","-2.94448","-0.111658","4.42775","1.49724","-0.881775","-0.356534","-0.990764","0.330435","4.46296","1.46096","1.30465","-0.527624","0.205596","-0.789986","1.57394","1.01056","3.41086","0.24468","0.125211","0.936088","-0.175349","1.43318","-0.832227","2.79734","0.0980108","0.334573","2.53918"],["2.74267","0.748075","2.31677","1.62314","2.16496","2.52435","1.16048","3.00326","0.515893","0.910737","-1.18101","2.19618","0.351479","-1.62401","-2.7204","-2.1087","3.8372","-2.2548","0.0175249","-1.11399","-2.57316","0.0809267","1.01858","1.03955","-5.46706","-2.21683","-2.71437","4.64839","1.44087","-0.724436","-1.13363","-0.596992"],["-0.991326","-0.574506","-0.494825","0.11801","-1.98701","0.00570817","2.03734","-2.04759","-0.795875","1.69317","-1.54943","-0.948803","2.08914","-3.92863","-2.84043","1.43941","-1.81774","2.54368","-0.630698","0.879525","0.236718","-2.06869","2.97436","1.16259","1.01215","-0.62114","3.49387","0.274058","1.62319","-2.00474","-0.315627","0.419265"],["2.59869","1.52728","-0.189886","0.0791021","0.664783","-1.73374","0.689565","-0.256961","-3.24499","-2.01592","-2.95573","0.386071","-1.91898","0.155188","-0.817999","-0.567614","-0.425304","0.760698","1.74481","-4.33807","-2.10046","-4.3474","0.401718","-1.63918","-3.06362","2.80942","2.77825","1.86449","-0.0258891","1.36722","1.23698","-1.04123"],["-0.772813","2.20717","4.26697","-0.158084","-1.73069","-2.41205","0.759876","-1.4241","1.66031","-2.76777","0.285653","0.339368","-2.54074","1.23513","-0.00246653","4.54985","-1.36334","3.54628","4.53782","1.9427","1.13872","-0.11409","0.76041","-0.958076","0.0583982","-2.86465","-0.761561","2.24537","1.34836","-0.384454","-0.993616","-1.25466"],["-0.905874","0.849135","-0.890646","-2.41682","1.51134","-0.597515","0.136312","0.800476","1.12697","1.33653","0.0947033","-2.73062","-1.4712","-1.31746","-0.925094","-1.35562","-1.02862","0.673771","-1.89826","0.516578","-2.41701","0.197468","4.54248","-0.302024","-2.05552","-1.45678","-3.44787","0.852929","2.32148","-0.0594695","1.81822","-0.720108"],["0.722477","-0.0814344","-0.864805","-2.25655","-0.833471","1.15851","-3.55609","1.23395","0.843926","-2.39183","-0.74322","0.15755","0.974186","-0.0596074","0.378933","-1.7504","0.951994","1.7874","-2.33685","1.02956","2.19048","0.456534","2.37273","-0.39696","1.62732","1.66087","-0.729211","0.0372867","-0.0381508","1.68194","0.153729","-0.780388"],["-0.732773","-1.32456","1.64216","1.41961","-1.18287","-0.799065","1.13533","-3.67125","3.15731","2.29744","0.530304","2.14748","-1.09414","0.151992","0.931144","-0.882711","0.996512","-0.942141","-1.00317","-0.010295","-2.68271","0.792471","0.349406","-0.371318","-0.472874","1.40378","-0.986866","-1.57116","2.60116","1.36237","0.0542668","-2.53871"],["0.831937","2.15942","-1.46495","0.860641","0.0826687","0.436846","-2.0734","0.564536","3.4875","1.19309","0.715269","2.76782","-1.46959","-0.871016","-1.40876","0.83681","0.361214","-0.115338","0.899933","-0.226555","-1.0751","0.384409","-1.51237","0.529605","-1.86403","-0.208947","3.18706","2.83756","-0.441206","-3.36755","-0.250287","-2.02411"],["3.22458","-0.151861","-1.13843","-1.08724","1.56365","1.45868","-0.104169","-2.43671","1.07096","1.72629","-0.685415","-1.45861","0.392302","1.02331","-0.655945","-1.05178","-0.326793","-2.32734","1.84809","3.13694","0.76304","2.66909","0.288617","-0.282768","1.44587","-1.9186","-1.25885","0.541606","1.24739","0.333143","-0.0935703","-1.6219"],["0.723447","-0.214759","-0.163562","2.11828","0.0104283","-2.3118","-3.05345","0.240331","-3.60012","2.72624","1.22876","1.34443","0.49844","1.2515","-0.544653","2.87556","1.78166","-0.612984","-0.988349","-2.72781","-1.04931","1.36141","-2.51753","-3.02761","0.578935","0.80247","-2.62135","-0.726221","3.32804","1.59726","0.980261","-2.9535"],["-0.637988","2.2296","-1.24984","2.87525","-0.583026","-0.979524","1.1442","-1.96598","-3.85561","1.01621","-0.182374","0.732974","-0.370986","-2.00329","-0.958273","-1.03267","-2.95701","1.90907","-0.64946","-0.492624","2.26831","1.86926","-2.30803","-2.20479","0.803169","2.23717","-1.67552","-0.731832","-1.98589","-2.93248","-0.878608","1.74227"],["0.937446","-1.72189","-1.64519","-0.434513","-0.766971","-0.747079","0.45327","1.01703","-3.87792","1.41142","0.440573","0.352147","-1.44587","1.62949","1.82927","-3.27085","-0.450335","2.82863","0.854221","2.23544","-0.154309","-0.0529263","-1.40817","0.213934","-0.0719044","1.186","-2.02455","1.05648","0.398915","0.74884","2.62539","1.57897"],["0.915783","-2.4076","1.27066","0.0896236","-1.70058","-0.834503","1.85196","0.777067","3.46046","0.732003","1.17848","2.71109","-3.03371","0.954626","1.20189","-0.00984294","-2.44334","-2.92503","-2.32452","1.03263","1.94188","-0.738971","1.23054","-2.34023","2.70558","0.6054","-1.97964","-0.34947","-1.59021","2.15814","0.870689","-0.7457"],["-0.354055","-1.44113","3.1689","-1.16577","-2.5738","-0.770681","1.79655","1.55629","-0.643058","0.912258","-0.0781757","-0.465442","1.48584","-1.4157","-2.80364","0.502897","3.22707","-1.98812","-1.49447","-1.29643","0.611915","-1.17331","0.0593856","1.24414","-3.20276","-1.04175","0.188522","0.277529","-1.05647","-0.283868","0.302248","-0.385736"],["1.01451","2.72494","3.49797","-0.015844","1.62216","-0.599929","0.0841744","-0.338332","-1.41716","1.84059","2.23868","-0.0987565","-0.694797","2.94357","2.67398","-0.000550313","1.4101","0.480706","-1.06365","-0.303577","-3.67544","-0.771959","-0.173722","1.20837","-1.64473","0.235734","-2.46628","1.07044","1.7394","-1.10677","-0.797495","4.3061"],["-1.26551","-3.16341","0.673153","1.23352","1.36001","-1.86351","2.08641","-0.162926","-1.29013","0.658884","2.13848","-0.0269415","1.80763","1.9876","-0.891842","-2.88384","-2.89685","-0.171016","-0.202656","0.895253","-4.04685","0.999822","-2.15173","0.846639","-0.185414","-0.847121","0.0483691","0.512295","-0.446616","1.34859","-2.98079","0.0302568"],["-0.979054","-2.78053","0.789548","1.2648","-3.70185","0.785075","-2.59962","-2.17127","-0.758378","3.97668","1.5473","1.31891","-0.40752","-0.640669","0.865557","1.24535","2.13901","-0.746364","-2.96816","-0.27947","1.98468","0.732857","-0.227309","-1.50704","1.0795","-0.335406","-0.558465","-0.828493","-2.01249","-1.35222","-2.24521","1.08582"],["-1.75053","0.569307","2.46611","1.26916","0.238021","0.0971755","0.620358","1.21745","1.08162","2.18347","-1.77552","-1.37526","1.52228","-0.165014","1.6253","0.600087","1.07861","-0.396153","0.437252","2.37739","1.28778","3.82234","-1.31268","1.11787","0.620306","-0.97504","0.671487","0.253233","-2.95132","1.96124","0.682635","-0.284514"],["1.912","-0.598353","0.370485","-0.548184","1.69665","2.39278","0.0494283","0.0129358","-3.81679","-1.66049","0.318261","-0.401444","0.328014","-3.19816","0.141668","1.02763","0.605363","0.74124","-2.64662","-0.822183","-1.7954","-0.0125427","-0.0112696","-0.974918","0.0890808","-0.466192","-2.18705","2.39738","-0.739994","-1.77792","-1.60967","-2.46835"],["-1.33386","0.495479","-1.61355","1.6553","-1.54826","-2.58576","-0.454788","-1.50756","2.7431","-0.421298","2.03094","0.449946","-0.410065","-1.6331","-4.06905","2.74144","-0.019729","-0.235841","-0.390243","0.117383","1.94182","0.232401","-1.71432","-0.0497898","-0.223438","0.32311","-1.48101","0.237807","-0.54154","-2.33806","-2.8579","-1.10327"],["2.04583","-2.41001","-2.50617","1.04656","0.786893","-3.97135","-0.882501","-0.828387","-0.930213","3.06421","-0.1161","2.0249","1.12855","-1.22765","-0.926108","1.75202","2.26753","-0.537914","0.878037","0.101479","0.459529","0.92122","-1.96904","-0.677098","0.511234","-0.0150706","-2.2002","1.90029","1.48681","1.48564","-0.42801","-4.1374"],["0.00694876","-3.78011","2.60538","-4.09221","1.45681","-0.671131","-1.41823","1.40862","1.38215","0.296026","-2.05469","-2.83397","0.0314271","1.32925","0.420283","-1.24256","-1.85317","1.76018","2.87333","1.99133","-3.52783","2.22511","-1.52122","-1.05024","0.994917","1.61343","-1.17805","0.613151","1.11665","0.350162","1.13155","-0.663642"]]},{"biasesArray":["2.99788","-0.281866","3.18956","1.80015"],"n_inputs":"32","n_neurons":"4","weightsArray":[["1.60593","0.0795679","0.239831","-2.81154","0.888684","0.916263","0.0470488","3.81193","1.00785","-2.82819","-0.987623","1.71787","-0.697733","-0.00790112","0.55869","0.232985","1.04048","-0.469332","-0.877051","-1.05907","-1.94471","0.0964606","-0.653856","-1.01172","0.0938311","-1.16736","0.396175","-1.22656","1.88392","3.25846","-2.25228","1.79352"],["-2.22334","-0.292806","-0.125103","0.666246","2.62658","-1.15883","0.205479","-2.62191","0.181725","1.85363","-2.05174","0.363498","5.81305","-1.90605","0.338432","-1.70533","0.0754515","1.24393","1.76315","1.31593","1.95694","0.147102","-3.35483","-1.56856","0.0677869","0.29563","-0.179879","-0.510021","2.47078","-0.287063","0.517284","-1.3457"],["-0.806376","-0.109263","-1.61502","-0.288123","1.1155","-0.602708","-0.418147","-1.21199","0.0659928","0.728846","-0.819603","-0.338154","0.132626","-0.265772","-1.51528","1.46857","1.30114","-0.449832","-0.465678","0.513372","0.316265","-3.28479","-0.49441","1.66688","-1.20176","-1.68697","-2.85266","-1.46019","0.607944","-1.66124","1.0734","0.972407"],["2.18992","1.2621","-0.899435","-0.816977","-0.297283","0.536036","-0.75007","1.48909","2.09596","0.113166","-1.48596","-0.641262","-3.31651","-0.370227","-2.54649","0.624633","0.750913","-0.897071","-2.2583","0.927138","-1.47089","-1.09198","-0.803489","3.21478","1.35608","0.917345","-0.644623","0.364223","1.02199","1.52567","1.62445","1.46036"]]}],"networkShape":["18","32","32","4"]}
