{"isPSO":"true","layers":[{"biasesArray":["-1.08955","1.24516","-1.10032","-1.56272","1.05613","-0.299247","-0.879033","1.69568","1.249","0.870147","0.285959","-0.812935","0.788127","-0.0781884","0.241579","1.50081","2.29266","-0.247535","-0.579655","0.101791","-1.54446","-0.856563","-1.46487","1.583","-0.264433","-0.493322","0.350028","-0.860149","-1.51762","-0.279774","1.63332","1.71279"],"n_inputs":"18","n_neurons":"32","weightsArray":[["-2.7368","-0.391787","0.19037","0.293501","0.308732","1.12109","0.216675","1.17898","-0.652613","-0.88198","2.3885","1.16123","0.995058","0.360614","-0.35865","0.150688","-1.5649","0.402114"],["-0.324386","0.937858","0.476919","0.341994","-1.0694","-2.27802","0.385814","-1.27407","-2.43264","1.19562","-0.331796","0.937934","-0.230945","-0.714872","-1.42286","-0.879605","0.0468974","-0.87462"],["1.99616","1.06861","-0.361065","1.34145","-1.63428","0.140013","-1.11509","-0.554242","0.225041","-2.76471","0.0265863","1.67479","-1.19906","0.404192","-0.590825","2.15845","-1.57488","0.082821"],["1.55887","-0.692819","-0.537365","0.796618","1.43682","-2.28811","1.15969","-1.65063","0.703306","0.968795","-0.174165","-1.97099","0.628969","1.34385","2.79542","-3.06657","-0.73441","0.024224"],["0.475631","0.729952","-0.00402473","0.387099","1.12671","-1.16669","0.327489","0.129097","2.94463","0.943554","1.23442","-0.181375","-0.183425","-0.620724","1.05545","0.673017","-1.31984","-0.731503"],["-0.125715","0.706685","-1.48839","0.485837","1.50595","1.32021","0.454312","0.427581","-3.43929","0.661283","0.631936","-1.55462","0.56052","-1.01544","-1.17245","0.292294","0.0960632","0.976099"],["-1.69719","-0.774525","-0.183389","-0.646866","1.05015","1.80572","0.657115","1.27575","-1.16657","-0.438163","0.607692","0.0405689","-0.801773","0.206426","-0.710635","-0.829739","-0.497909","0.656327"],["0.114775","-0.0433819","-2.24131","-0.675673","0.705851","-0.65779","0.0111809","0.360869","-0.181084","2.38676","0.81816","-1.80983","2.39286","-0.997252","0.474932","0.197819","2.77543","0.141757"],["0.709666","-0.280315","1.91007","-0.792243","0.894569","0.874695","-0.0243645","-0.88368","0.311583","-0.362438","0.0325161","-1.80295","-1.86471","-2.20101","-0.152859","1.57273","1.23563","0.200058"],["-1.18502","1.74536","-0.651084","-1.36011","0.177504","0.802911","-2.04296","-0.0361427","-1.35268","1.06185","0.0801556","-1.17349","-0.903409","0.497761","1.62858","0.0512216","0.639923","-1.01784"],["-0.565186","-0.806985","-1.58696","0.585367","-0.448828","-0.107316","-0.223317","0.0539962","2.549","1.09066","1.94249","-1.82373","-1.02375","-1.69672","1.46198","-0.51088","0.326644","-0.00589286"],["-1.44533","-0.145743","-0.297949","0.683579","0.447219","-1.51271","-0.571108","0.00451618","-0.0302757","-0.748717","0.841571","0.277518","-0.151197","0.935032","-0.400974","0.953838","0.0125102","1.56862"],["-0.722184","-0.314219","-0.464159","-0.730438","-1.19659","1.28767","-0.20751","-1.06927","1.8019","-0.322851","0.134991","0.105571","-0.0178024","0.607216","1.45891","0.0379846","-1.36019","0.100526"],["-0.242484","0.225263","-1.3821","0.745309","-0.871307","0.164857","1.0729","-0.0573387","-2.85144","0.44938","0.16981","0.374925","0.0295969","-1.15892","0.460962","-1.12579","-1.09455","-1.48798"],["-1.53611","-1.66787","0.591985","-0.642081","-0.333906","-0.47772","0.318456","-0.486726","-1.1944","-0.292033","-1.51958","0.29882","0.599295","1.65492","0.383238","0.764353","1.66805","-0.690486"],["-0.513668","-0.0532334","-0.222445","-0.941007","0.543451","-0.662844","0.753468","1.59655","1.4257","-0.0865246","2.01665","-0.148798","1.00043","-1.53763","-0.167153","-0.83842","0.241033","-2.04517"],["1.91187","1.8301","0.512882","0.556994","-1.66959","1.6196","-0.729133","0.298278","-0.604798","-0.251505","0.120322","-0.137818","0.27442","-0.5096","0.264446","-0.0695941","0.215093","-0.839918"],["-0.756153","3.04578","-0.097452","1.96895","1.25973","0.162855","1.97278","-1.77069","-1.521","1.35526","0.67104","0.660812","-0.719599","-0.918433","-0.329193","-1.51722","-1.06717","1.22474"],["0.99824","-1.60709","-0.228718","-0.616271","-1.59734","-0.559281","-0.660148","0.742315","0.571647","0.0672796","-1.67582","0.925625","-0.92141","0.665428","-1.07532","-0.472181","-0.545021","-0.133425"],["-2.22794","1.23952","-1.31269","0.439343","0.549715","-0.606654","-0.514439","0.0109143","-0.538142","2.28817","0.344404","1.58994","-1.30298","0.104407","-0.721214","0.23928","-1.72351","0.686017"],["-1.59415","0.151332","-2.06802","0.595022","2.89991","-0.928141","-1.96906","0.748836","-0.687967","-0.81797","-0.15592","-1.29856","0.120712","1.92154","-0.915549","-0.673789","0.169477","-0.0580091"],["-0.272475","0.313487","0.580725","0.183956","0.854736","2.12208","0.500144","-0.366268","-0.324761","0.491902","-0.197402","-0.905298","-0.300402","0.463442","-1.42329","-1.87833","-0.289199","-1.44711"],["0.415586","-0.554681","-1.18763","-1.59163","-0.872374","-0.729785","1.0445","-0.0691029","-0.756943","-0.546904","0.366686","-1.69294","-3.4131","0.224863","0.0788988","0.510645","0.78822","0.822401"],["0.711434","-0.255624","-0.144791","1.87813","-0.415044","2.33248","0.55229","-1.18247","1.80293","1.54206","0.911559","0.324957","1.60962","1.00177","-0.0530882","-0.798258","0.717782","0.860993"],["0.334844","-0.156445","1.77651","1.41934","1.65373","0.545244","2.23142","-2.14643","-0.130481","-0.640786","-0.0137934","1.15185","0.427159","0.12924","-1.6109","0.364045","-0.95766","1.36869"],["0.0677246","0.259095","0.999532","0.0863878","1.36006","-0.3841","1.39907","0.578833","-1.2194","0.226869","-0.769699","0.0129161","1.54772","-0.202285","1.28231","-0.0548525","0.484974","-0.141505"],["0.826157","-0.663134","0.543181","-0.241199","-0.242835","1.00291","-1.09573","0.201576","-0.472503","-0.149239","2.34197","1.71473","-1.11196","1.20171","1.58746","-0.627488","1.33811","1.0156"],["-1.08906","-1.06138","1.007","-1.415","-0.438406","-0.121962","1.85273","-0.34855","-0.174869","0.878929","2.06857","-0.236437","-1.30699","-1.1512","-1.35064","0.251459","-0.37995","0.605402"],["0.178184","-1.74744","-0.411628","1.42983","-0.15202","-1.53019","0.529313","0.663618","0.473902","-0.128333","-0.821859","-1.43927","-1.43567","-1.44978","-0.911364","-0.229836","-2.34435","-2.20692"],["-1.79695","-0.490843","-1.71058","-1.37168","-3.84203","-0.719686","0.224008","-1.25626","1.72382","-0.557099","0.996436","0.0628069","2.06753","0.488752","0.143695","2.10887","-0.168121","-0.372844"],["1.13592","-1.00769","2.00577","0.669938","2.07812","0.510372","2.13045","-0.275944","1.0489","-0.428126","-0.566319","1.20158","-0.35284","-0.659901","-0.704332","0.973204","1.31641","1.34968"],["0.101624","2.62978","0.22906","2.14018","1.81529","1.74586","-0.880616","0.227423","-1.53038","0.0639964","-0.450769","-0.805276","0.962638","0.233454","2.03644","-0.814056","0.546983","2.05922"]]},{"biasesArray":["-1.87682","-0.788074","1.64293","0.744687","1.71123","-0.35267","-0.906984","-0.190749","0.755493","-0.00800121","1.64216","-0.385017","-0.800436","-0.769415","1.32935","0.603914","0.836526","0.207173","-0.973181","0.631247","-1.16721","-1.45884","0.687425","-2.26134","-0.619459","0.11713","-1.39683","-1.48039","-0.76412","1.09612","-1.45889","0.102054"],"n_inputs":"32","n_neurons":"32","weightsArray":[["-0.414424","-0.653988","-1.38912","-1.60087","-0.192794","-0.488034","0.974855","0.310367","1.30382","1.70515","-0.0524886","0.329781","-0.383228","-2.2139","-0.995492","-0.805097","-0.650763","0.109114","2.21478","-0.80517","-0.519308","-0.232409","0.408337","-0.0519913","-1.56364","0.596329","1.56445","-0.83202","0.0809213","1.04533","-0.955682","-0.312662"],["0.241677","-0.693256","0.463675","2.03191","-1.93562","-1.58454","-1.05127","1.94466","1.66142","0.856421","1.31424","0.193121","0.713259","1.96548","2.51246","1.62644","0.319445","0.695078","1.40623","-1.20534","-0.469498","-0.411409","-3.15759","-0.354074","-1.42184","-0.370135","-0.519557","-0.691555","-1.19687","-0.031816","0.20829","1.22732"],["1.06513","-0.183372","-1.0357","0.845088","0.334261","1.58833","0.0238512","0.0895996","-0.533574","-0.603069","-0.262836","1.09553","0.166736","-1.18154","-0.799472","-0.52297","0.0792559","-0.388869","-0.757756","2.00515","-0.264042","-0.814686","-0.828623","1.99535","0.0953957","-0.233616","0.544693","1.02482","-0.840952","-0.509514","-0.727502","0.518201"],["0.433453","0.301689","0.4574","0.496412","-0.551621","-0.530704","1.53619","-0.100759","-1.00867","1.39989","-0.677851","1.26924","-0.206772","-0.514047","1.52808","1.9537","-0.804727","0.477764","1.2342","1.49831","0.523589","0.610223","0.916346","-1.31714","1.75941","-1.44781","-0.340771","0.226945","0.0627417","0.314928","0.493544","-1.24287"],["-0.66387","2.08882","-0.260877","-0.623841","-1.45974","0.190473","-1.75863","1.13694","1.77173","-0.12843","0.405294","-0.969602","3.23316","0.361203","-0.0684827","-1.25577","-2.47791","-0.212619","-0.0539859","0.780895","-0.304582","0.28874","-0.00470481","-1.34106","0.318048","0.762993","0.0514452","0.763425","-0.466197","-0.690306","-0.158604","0.529423"],["-1.30265","0.485448","0.666771","-1.03012","0.167234","1.80749","-0.359984","0.982026","0.414563","-0.421639","1.2971","1.81069","1.08387","0.0399321","1.72856","-0.503053","0.0586359","0.895048","-1.16228","1.78297","-1.35055","1.65546","-0.667141","-0.876448","1.3078","-0.389672","-1.10121","-0.537498","0.274653","1.00002","2.53788","1.06486"],["-0.974494","0.140678","-0.910661","-0.92235","0.358215","1.63453","0.00759543","0.931353","0.128117","0.61771","-1.55699","1.17716","-1.42275","1.07686","0.0657705","2.05559","-0.849809","-1.03312","0.379363","0.666954","-0.976406","-0.484571","0.453257","-0.278899","-0.12675","1.62594","-0.146714","0.510144","-0.696146","1.05793","-0.99537","-0.0228795"],["0.407619","1.25981","1.53658","-0.925182","0.314348","-0.0149823","0.00126204","-1.09053","-0.595413","-1.31137","1.30358","-0.585469","0.234301","0.151729","0.747231","-1.38162","-0.0664652","-0.881425","2.05135","-0.407248","0.521755","1.71041","0.344867","-0.884829","1.36135","-0.310223","-0.428614","2.71427","1.35048","-0.986608","-1.46729","-1.1966"],["-0.734911","-0.938085","-0.550529","-0.160653","1.22798","-0.0245681","0.737558","-0.127726","0.452472","0.705488","-1.52498","-0.547799","0.933996","1.33554","0.0847632","-3.15891","-0.26546","0.913571","2.39854","0.373653","0.149693","0.206721","0.459387","-0.218502","-1.74411","1.79038","1.78202","-0.150874","1.46667","2.36254","-1.41398","0.884423"],["-1.0836","-0.615661","1.2925","-0.868181","-0.314895","-1.24616","1.62934","-0.660398","-0.154333","0.546957","-0.10994","-2.52457","-1.89582","-2.70489","-1.05796","-0.332551","-2.45339","-1.63883","0.380397","-0.396704","-1.87652","-0.296601","-0.681118","-0.598432","-0.148843","1.24993","-0.154537","-0.767856","-0.492488","-0.891336","-0.058648","-0.148491"],["2.39883","-0.41547","2.23642","1.91479","0.475012","0.0553855","0.395672","0.224842","1.38097","1.1914","0.576457","0.400915","-0.610035","-1.76712","-0.720082","-0.339585","-0.249752","-0.171893","-0.0469353","-0.93091","-0.301981","-0.704891","2.34614","1.57093","-1.14687","-1.42032","-0.214681","1.31827","-1.27427","0.476458","-0.488846","-0.398401"],["0.265778","1.89185","2.16766","0.0983888","-1.28559","-2.2827","-2.28292","-0.666108","-1.20939","-1.14347","-0.142783","-0.622467","-0.0445353","1.02564","-0.994485","1.05529","-2.77445","-0.412246","-0.733723","-2.3485","-0.622149","0.101905","1.47364","0.87105","0.151922","1.37454","-0.389972","0.464994","1.66407","1.77699","-2.37901","-1.35155"],["-0.299226","0.557251","-2.71389","2.39394","-0.787406","0.243875","-1.75855","1.06945","-1.07144","-1.54628","1.41792","-0.12042","-0.619711","-0.827799","0.281243","-1.15624","-0.172258","-0.487903","0.434371","-0.712995","-1.23213","-1.34373","-1.0982","1.0378","1.01116","1.41619","-0.634844","-1.66705","1.62404","1.66682","-2.51455","-1.33343"],["1.8772","-0.157832","0.646992","-0.50292","0.543839","-0.680697","-0.127001","-0.238565","1.89439","1.27247","-1.67037","-0.705494","-0.108703","-0.240222","1.52416","1.71039","0.354441","1.17034","0.311657","-0.684935","0.096529","0.0797395","-0.322155","-0.486828","-0.240402","1.95006","0.357698","0.170188","-1.4404","-0.420935","0.485058","0.810778"],["-0.383328","0.0828825","-0.679933","-0.731965","-0.598513","-0.372214","-1.46298","0.362276","-2.74232","-1.25823","-0.230669","0.940673","1.76559","-0.147692","0.107858","2.2114","0.440985","-1.05062","0.392908","-0.751909","0.384032","1.33425","0.885693","-0.315198","0.322347","1.40197","-0.268204","2.02669","1.59402","-0.197339","-0.728229","-0.182748"],["-0.192341","0.0459171","1.22656","2.42699","-1.61617","-0.0164635","-0.50436","-1.08228","-1.68247","0.896917","-2.28686","0.484094","0.28916","1.01405","0.883744","0.45131","-0.0758871","0.486317","1.4023","0.720401","1.70821","0.328683","-0.0577439","-0.708286","1.96577","0.914144","-0.782117","0.800876","0.491386","0.41711","-0.588804","-0.563086"],["1.67983","0.109708","-0.205597","-0.347616","0.781101","1.16258","-0.440085","-0.00430241","-2.47516","3.25793","-0.561432","0.619867","0.165395","0.00939911","0.137932","-0.655386","1.21998","0.482558","2.53434","0.875299","-1.10914","-2.82806","-0.606541","-0.0233069","0.0406719","0.360145","-0.676723","-0.729853","0.886643","-0.0236886","0.474664","0.852262"],["-1.61955","-0.45784","0.0543281","0.028592","-0.547823","1.09411","0.994423","1.70781","-0.767587","-1.02432","2.04984","-1.69732","0.339088","-0.449649","-1.367","2.50898","0.414744","-0.678804","-0.230316","-0.431287","-0.657501","0.14681","0.168121","1.30147","0.486566","1.56028","-0.261613","1.45376","0.942231","-1.65752","-1.04787","0.590517"],["-0.225424","-0.13031","0.997572","-0.541618","0.682487","-0.503852","0.600519","0.361067","-0.664308","-0.072257","0.632516","0.0263556","1.76449","-0.049895","0.306274","0.568287","-0.766725","-0.634327","1.14993","-0.857234","-0.336761","0.891409","-0.0041013","-2.27787","-0.995146","2.6925","1.17051","-0.43714","1.56722","1.89492","-1.43461","-0.0902296"],["-0.0784337","-0.170461","0.723541","-1.02136","1.9895","0.0949458","0.913975","-1.14378","1.64912","0.909756","-0.177417","-1.45167","0.201654","0.109545","-0.035142","1.07266","0.262317","-1.54437","-0.0908916","1.31602","1.64529","-0.42678","0.505111","-0.945776","0.323064","0.347411","0.812353","0.630351","-0.721679","-2.0314","1.96992","-0.779624"],["0.360388","-0.349178","-1.14817","-0.930084","0.766594","-1.75862","-2.17239","1.77407","-1.20262","0.74545","0.479011","0.775317","-0.83844","0.84996","-0.906665","-0.225966","1.97539","1.40356","1.93319","-1.28074","-0.705015","-1.5538","-1.07663","0.768572","-0.441384","2.01344","0.804687","1.54956","0.687608","-2.34081","-0.126878","-1.27812"],["0.0163824","0.974817","0.510359","-0.513618","0.223199","-0.6014","-1.20868","0.770711","0.181244","0.377677","0.513944","0.0152743","-1.65994","-0.329804","0.182011","0.515256","0.278363","-2.1381","-0.599414","0.119942","0.832762","-0.20225","1.09922","1.18578","-0.661493","-1.14349","1.8622","-0.243265","1.10368","-0.416874","2.98409","1.84869"],["-0.293507","1.54394","-2.08322","2.09523","-0.413012","-0.752343","0.461086","-0.792707","-0.886845","0.0494066","-0.770784","0.366707","0.3821","2.17931","-0.404265","-0.770228","-1.22839","0.103722","-0.62473","0.107186","-1.01672","0.0240728","-0.794696","-1.73339","-0.426263","-0.135279","1.44335","1.79658","0.0493071","-0.253125","2.1504","1.27137"],["-0.471899","-0.212193","1.53149","-1.04359","-0.178996","0.506526","-0.833103","0.0773986","-1.56844","-0.411561","-0.605461","2.60346","1.10496","-0.152548","0.212611","-0.70425","-1.09863","-1.73228","-0.184706","-0.730552","-1.34435","0.0815599","0.623436","-4.08104","-0.356118","0.357781","0.218672","-0.358132","-1.50876","-0.0535882","-0.153269","-0.63652"],["0.466258","1.02588","1.40557","-0.844714","-0.215869","0.596529","0.462227","0.757741","1.78727","-1.08749","-0.710068","0.781222","-0.821384","-2.98061","-1.39122","-1.46054","0.40266","-0.674134","0.156757","0.456237","-1.57015","-0.148365","-0.334771","0.688733","-0.0475121","0.113938","-1.16099","-2.42605","0.0186201","-1.1691","0.198802","1.51271"],["-1.20927","0.548421","0.270145","0.42309","-0.746128","2.36427","1.65802","-0.537217","-0.637174","-0.77798","0.709227","-1.57118","-2.16893","0.62412","-0.393994","-1.0331","0.0245363","-1.73642","0.397724","0.807937","0.697651","-0.634798","-0.763056","-1.99959","-1.78699","-0.576929","-0.79984","0.817435","-0.26673","-1.46588","0.57478","0.832879"],["2.9057","-0.194286","0.744423","-0.105008","-1.04659","0.877938","-1.39954","2.75496","-0.150717","-1.26933","0.0752289","-1.18006","-0.544656","1.93344","0.261133","1.3622","-0.553697","0.88539","-0.591845","-2.29394","-0.713545","0.6754","-1.31346","-1.31109","0.276687","1.79508","-1.02704","0.0639067","-1.75693","-0.0544533","-0.254771","2.39367"],["0.141245","-0.61816","-1.29806","-2.62993","2.45207","-0.279289","-1.27369","2.29387","1.46118","-0.537513","-1.16725","1.09303","0.500101","-1.96667","-0.0984962","-0.0738799","-0.31939","2.03253","-1.03345","1.02953","0.464375","0.443539","1.17987","1.46029","-0.55302","-0.0408171","-2.38903","-0.507717","2.02328","1.68654","-1.87112","0.488122"],["-0.415774","-0.484903","-0.329804","0.688154","1.1983","-0.145241","-0.615042","-1.57729","-0.0190623","0.104704","0.134484","1.09643","-0.410923","-2.0707","-1.21838","-1.01279","0.762932","-1.42863","-0.119288","-0.0241017","-0.753462","-1.06446","2.41566","0.0214929","-1.13333","-1.97811","-2.22104","-1.14427","0.513908","1.06714","2.07717","-0.61898"],["-0.834858","-2.01345","1.20132","1.49709","0.474593","-0.585926","-1.28736","0.494143","-1.2044","0.750398","0.171444","-2.23462","2.61338","-0.174901","-1.49239","0.229397","0.152599","1.62887","0.01248","0.872819","0.319265","0.676381","0.0872397","-0.629455","0.987328","1.45194","1.20085","1.29562","-0.756451","0.716725","0.340689","-2.43546"],["-0.126369","0.33091","1.47179","-0.887791","-1.23132","1.28951","0.561757","1.04966","2.35692","-1.28396","1.81603","1.67547","0.89263","-1.83734","2.08309","0.672459","-1.86648","0.328884","0.626914","-1.0801","0.0457035","0.58993","1.15226","-0.0596481","0.300604","1.61273","1.29077","-0.418991","-1.36082","-2.06175","-1.09504","-0.66393"],["0.237006","0.881938","0.675416","2.53104","-1.40425","0.64818","-0.382628","-0.690009","-1.68741","-0.237626","1.86081","2.2302","0.292191","0.991637","-0.61283","0.240854","-1.02194","-0.785508","1.84739","0.682184","-0.628177","0.237161","1.03439","1.12892","1.65355","1.16188","-1.12318","0.148517","1.09135","1.59553","-0.362427","-0.57726"]]},{"biasesArray":["-1.6448","-0.731083","-0.933175","0.274734"],"n_inputs":"32","n_neurons":"4","weightsArray":[["0.355825","-0.178941","1.03646","0.290111","0.266579","-0.718925","-0.297759","1.1348","-0.711261","0.946323","1.56039","-1.71641","-0.119275","0.658664","0.714366","-2.08955","-0.401111","-0.737035","-0.913529","-0.0639675","0.747182","-1.60013","0.0256328","0.0651453","-0.346509","1.29545","-0.580789","-0.94394","0.307813","0.359247","0.241345","0.086077"],["-0.0453285","-0.676454","0.784691","-0.697316","2.96702","-1.24693","-2.29696","-0.362995","0.0999911","0.820518","-0.0741582","0.98757","0.0354408","0.302384","0.893343","-0.297103","-0.48646","-0.43027","-1.68491","1.32036","0.717915","0.256023","-0.235236","1.36686","-0.62134","-2.11365","-0.537874","1.40373","-0.281812","-0.318612","-0.499671","0.193696"],["0.16156","-0.0597226","0.940245","0.240413","-1.97625","0.854909","-1.89614","-0.24954","2.07153","-0.395944","-0.950763","1.5153","0.417002","0.0161227","-0.393413","1.93393","0.215666","-1.51702","-1.201","-0.343145","-1.13281","2.16746","-1.50121","0.220377","0.150454","1.30205","-0.614515","-0.624085","-0.834649","-1.50529","2.5301","-0.718286"],["1.07393","0.244941","1.09265","1.14025","0.773801","-0.6101","0.101175","-1.39341","0.474056","0.35592","0.507157","1.57009","1.09353","-1.6222","1.38317","-2.19874","-0.258154","-0.396105","-1.42489","-1.4917","-0.105202","0.825611","-0.777872","-1.05394","-2.15271","-2.12531","-0.613993","0.708121","-0.114547","-0.917027","0.794503","0.439582"]]}],"networkShape":["18","32","32","4"]}
