{"isPSO":"true","layers":[{"biasesArray":["-0.253778","0.67346","-0.352354","0.266354","-0.149019","-1.08135","0.815253","0.923784","-1.41407","-0.810099","-0.579354","-0.0426992","0.00649191","0.248025","-1.51168","-1.828","0.22095","-0.196877","0.980191","0.243915","0.514013","0.707904","-0.310394","-0.40627","1.06882","-0.140936","-0.488221","0.31561","-1.69459","1.4473","-1.18142","-1.20913"],"n_inputs":"18","n_neurons":"32","weightsArray":[["-1.21369","1.0329","-0.0233297","0.153713","-0.939894","0.0357106","1.29739","0.914618","0.46742","-0.793543","1.10726","-0.922662","-1.41217","1.01969","0.101963","0.819558","-0.298329","-0.675765"],["-1.63084","0.402535","-1.17067","-0.0312293","-1.56967","0.273129","0.0892973","-1.1675","-1.53454","0.203688","0.647243","0.219531","1.37597","-0.721609","-0.647241","-1.4612","1.42941","0.134956"],["-1.3428","-1.65556","0.890094","-1.26451","1.82527","-0.897333","2.35128","0.341032","0.303379","0.913899","-0.501564","0.293388","1.43391","0.0492285","2.49175","-0.0498782","-0.129499","0.845507"],["0.603189","0.0800693","-0.0277987","0.509531","-1.71412","-0.184256","3.06055","-1.12434","-0.992526","-0.678014","0.815638","-0.20139","0.628581","-0.504417","2.59019","2.98958","-1.6477","-1.13198"],["-1.91251","1.76102","1.42235","0.199244","-1.79453","2.01895","-0.268321","0.0366682","0.957229","-1.18072","0.0732242","0.514115","-0.82059","-1.72659","-0.741584","-0.012508","0.463933","1.09977"],["0.122087","-0.448545","-1.30037","-0.24644","0.625743","-0.797048","1.19689","0.571245","1.90597","1.25511","-2.35145","-1.02294","-1.18383","0.959603","-0.449249","0.0305763","-0.674566","0.362703"],["-0.0936554","0.0551429","-0.286335","1.88622","0.0339855","0.218517","-0.129166","-1.59391","-1.25606","-0.834959","-0.499171","-1.73071","-1.93988","1.03614","-0.311139","-0.334306","-0.336201","-1.86379"],["0.702389","1.93162","-0.225121","1.71879","1.23607","0.951333","1.08348","1.45219","-3.11525","0.0693857","0.678856","0.75776","0.460883","-1.98955","0.249809","0.383504","-1.83604","1.99667"],["0.419318","-0.513823","1.41091","1.61761","-0.503563","0.750913","-1.07503","-2.09653","1.82189","-0.276031","-0.428163","-0.515508","0.57131","-0.966006","-1.3579","1.76343","0.421842","-1.88056"],["-1.11214","1.22363","0.799041","1.49865","0.297056","-1.03929","1.25893","-0.18756","-0.220837","-0.417761","0.628759","-0.76008","2.8209","0.0232064","-1.30862","-0.167086","0.559408","0.0703916"],["1.54628","0.293582","-0.396785","-1.05262","0.717424","0.920494","-0.216015","0.99377","1.61441","-1.20799","-0.0705424","-1.10825","-1.44426","-0.185268","1.19106","-0.397229","-0.824966","1.41454"],["-0.924854","-1.62958","-0.226485","-1.14713","1.46862","0.972844","-0.222154","-1.66107","0.0918072","0.686981","0.329474","0.670635","-1.33481","0.206447","-1.11506","-1.30907","0.637924","0.948143"],["-0.166","0.490838","1.8051","1.69196","-2.90521","-0.583137","-0.392044","-0.350669","-0.125636","-1.22706","1.75321","-0.0732401","-1.43893","-3.28777","1.34503","1.6386","-0.506615","-0.909555"],["0.623909","-1.63694","0.156121","-0.17145","-2.72383","-0.602021","-0.780768","-1.36799","-0.805078","1.54061","0.530738","-0.403231","-0.265757","1.47869","-0.942789","0.344265","-0.461545","0.475418"],["1.36782","1.09561","1.71878","-1.83812","0.599504","-1.14654","0.203565","0.393884","1.55176","-1.17054","0.76257","1.56967","1.7362","0.724087","0.521396","0.499846","0.897172","-0.698493"],["0.3425","-1.27706","0.673814","-0.331338","-0.866388","-1.51885","0.0184133","-1.15596","0.198677","-0.10174","-2.40854","0.848314","-0.965842","0.813744","0.663341","1.87952","-1.33492","1.57481"],["-1.50632","-0.22621","0.120075","-1.3476","0.544594","-1.10327","1.29964","-0.799142","0.671917","1.57914","0.752017","1.69122","-1.93302","0.824199","-0.464785","-0.366831","-0.410801","-1.31299"],["0.404555","-0.0297049","-0.988836","-2.1302","0.478321","0.775217","-0.820788","0.77806","0.7558","-0.41522","-2.81454","-0.0342506","1.11458","1.89688","-1.00052","0.504036","-0.285044","0.376836"],["0.833306","-1.54339","-1.67242","-0.249955","-0.536118","-1.06803","-0.654513","0.663207","1.02796","-1.59593","-1.00621","1.28548","-0.855772","1.92164","0.914972","-3.17617","-0.250423","-0.546295"],["-0.559187","-1.79005","-0.642055","-1.42711","-0.532281","-0.579568","0.621851","-0.337297","0.441773","-1.82899","1.28226","0.772627","-0.40144","-1.0696","-0.963583","-0.599413","2.71518","0.756056"],["0.36228","-1.32294","0.135582","-0.784028","-0.435278","1.56237","0.0436856","-0.447455","0.289175","-0.974774","-0.602393","0.0120513","-1.47398","-0.548047","-0.0723202","0.0472774","0.571512","1.01566"],["0.365655","0.223824","-0.412081","-0.627471","0.317508","-0.131952","-0.32126","2.42934","0.550873","-0.778745","1.71743","-1.68487","-1.20777","-0.48475","-1.46432","0.918876","-0.662515","-1.41228"],["1.57702","0.853262","-0.478713","-0.117571","-1.56659","0.391716","-0.732698","2.12912","-0.802919","-0.133091","-0.63406","-1.75612","-0.547706","0.4566","1.39695","0.44116","-0.18363","0.0445454"],["-0.246635","-1.35005","-0.283029","-0.882659","1.84285","0.0605514","-1.16112","-2.00821","0.675916","0.692668","0.911397","1.59897","0.356177","2.76813","0.0890273","-0.365632","-1.63826","-2.25623"],["-0.594196","0.136387","0.955831","-1.1784","0.688037","0.705519","0.359725","-2.06923","0.421381","1.69928","0.454988","-0.627773","1.21831","-0.750072","-0.711588","2.02742","-0.889023","0.319186"],["1.35091","1.66694","-1.57281","2.52735","0.194006","-0.284983","1.84564","-0.74449","-0.409596","1.6854","-1.59342","-0.67789","-2.06116","1.19214","-0.983415","1.58592","-0.959779","0.741467"],["-1.00617","-1.19728","0.963145","2.43272","-0.512136","-3.07834","1.12253","-0.783689","0.503234","1.60408","-1.20308","0.648918","-0.047902","2.34796","0.242484","1.40492","1.44058","0.371444"],["-1.86283","-0.190513","-0.0390729","-0.722436","0.560878","1.30883","-0.198957","0.0730406","2.16444","-0.447082","-0.41992","-0.520499","-0.225744","0.247289","1.21559","-1.25483","-0.53301","0.569798"],["0.235135","0.204673","1.68516","1.09317","1.59289","-0.0454965","2.67143","-0.196655","-2.64618","-2.65634","-0.643694","-0.634521","1.0206","-2.13361","1.39367","0.10562","0.8986","0.962603"],["2.72616","-0.290522","1.06794","-1.32401","-2.24566","-0.298573","-0.229042","-0.978359","0.965797","0.652488","0.525322","0.0860843","0.895258","-0.196298","-0.517758","-0.420689","-0.697938","-0.219299"],["-0.461144","-0.562153","-1.53614","1.11472","-0.726974","-1.02725","-0.990926","1.77119","0.417406","-2.05425","-1.362","-1.77637","-0.228854","-0.646194","-0.278245","-0.878414","-0.518903","-0.109497"],["-1.4707","0.380832","0.684301","-0.672106","0.514869","-1.66147","-0.751075","-0.857656","-1.05854","-0.968426","-0.918001","-0.323959","-1.90069","0.266836","-0.03898","-0.935142","-1.69778","1.87413"]]},{"biasesArray":["-0.398784","1.31074","0.569258","0.00344458","0.919416","-0.380373","-0.518075","0.789993","-0.654756","-0.47215","-1.13165","-0.24588","-0.237811","-0.470271","0.426243","1.2436","2.00748","0.618105","-0.944888","0.239859","1.556","-1.05633","-2.39738","-1.16186","-0.54676","0.274184","1.4644","-0.256292","0.0564953","-0.943246","-0.0326115","-0.142048"],"n_inputs":"32","n_neurons":"32","weightsArray":[["-1.753","-0.501457","-0.858405","-1.28927","-0.363763","1.26233","-0.339284","0.552627","-1.25712","2.92626","-2.23839","-0.489961","1.35136","-2.17051","1.66252","0.72229","-0.305331","0.0430143","0.0543707","-0.679675","0.29018","-0.132433","-0.945218","-0.896416","0.403635","-0.465319","2.33204","-0.371072","-1.0945","-1.81371","-1.01381","-1.67379"],["-0.795656","-0.426095","0.726879","1.46553","-1.28507","-1.948","0.530711","1.39319","1.12573","-0.596315","-1.38863","0.543397","0.910993","0.967303","-0.448293","2.22162","-1.76315","1.81905","-0.240068","-1.71579","1.7528","-1.12429","0.22183","0.952291","0.857813","-0.719506","-1.14178","-0.648882","-0.750951","2.43665","-1.69803","-3.17547"],["0.366801","-1.32487","-2.08799","-2.89916","-0.337707","-0.00298482","0.375137","-0.750531","2.19094","-0.662245","-0.62233","1.13518","1.04948","0.536337","-0.611122","-0.673929","0.427481","-0.575165","1.86995","0.426221","-0.39597","0.571232","-0.573727","-0.707675","-0.361431","0.364102","2.46298","-0.656485","2.32756","0.601956","2.38984","-0.735383"],["-0.472133","-0.536474","-0.59388","0.577987","-0.183609","0.0512046","0.946857","-0.888427","1.69076","-1.8068","-0.209294","0.818827","2.62892","-0.813112","0.0971875","-1.27293","-0.833075","1.23958","2.25037","1.37079","-1.26148","-0.762214","1.51935","0.0142325","0.175072","0.503477","0.122673","-1.15044","0.323644","-1.0428","-0.383977","0.219483"],["0.0627962","0.616655","-1.00669","1.42148","0.241398","0.0504721","0.679495","1.97635","-1.76183","-1.21742","1.30009","-0.334014","0.430847","-1.59121","0.389161","-0.110454","-0.629108","-0.509541","0.165599","-0.416475","-1.70364","1.0315","1.56294","1.35657","0.496018","0.92608","0.142633","0.412396","-0.550474","0.729019","-0.854546","0.740838"],["-0.682012","1.85094","1.91497","0.570016","-1.31362","-0.253192","0.782684","-0.598503","1.61786","1.96623","0.315298","-0.0387216","1.98998","0.091164","0.415343","-1.19835","-0.745578","-0.543506","-1.55092","1.0286","-0.586211","1.07976","0.0625635","-1.49941","0.664798","-0.947858","0.41596","-0.28318","0.199358","-0.840988","-0.138677","0.937225"],["0.094957","-0.526703","-0.35584","1.16888","1.69473","2.02082","0.126784","0.456804","1.6531","-0.0197418","1.38215","-0.697987","-1.18445","0.114332","-0.970625","-0.172451","-0.959667","-1.41828","0.230815","-1.11794","-0.467335","-0.777418","-1.13276","-1.24834","-1.13076","-0.114508","-0.271364","-0.563763","-0.760475","-0.667002","-0.101071","0.317867"],["2.31601","-1.42205","-1.12353","-0.569636","-0.982494","0.458577","0.347297","-2.46202","0.741422","1.05685","-0.203687","-0.675144","-1.27699","-1.18376","1.49886","0.475344","-0.846593","-0.0469606","0.118447","-1.00744","0.0438437","-0.456356","-0.208241","3.31882","-0.900888","-0.202211","-1.19609","-0.886709","0.821427","0.732385","2.74149","0.595245"],["1.10918","-0.0625173","-2.12596","-2.2809","0.400003","-1.49949","-0.988906","-1.86637","-1.21956","1.09259","-1.54574","-0.341168","0.584463","0.979049","0.517438","1.55873","-0.240741","-0.34589","0.00854074","-0.934003","-0.734283","0.477615","-0.144378","0.394114","0.228437","1.89112","0.680783","-0.746937","2.09268","-0.564458","-1.33513","-0.0305002"],["-0.14708","0.739168","-1.00339","-0.182808","1.01774","0.464482","0.653054","0.653421","-0.76936","-0.643862","-0.620665","2.16694","0.421832","-2.42987","-0.380567","0.126295","0.300965","-0.119505","-0.928092","-1.11419","0.846007","0.658771","0.245811","0.743503","0.355438","-0.392842","1.26152","1.37306","0.613269","-0.826334","-1.50298","0.0997481"],["-0.917622","-0.477375","-0.130818","0.584979","0.693847","0.128703","-0.907135","-0.218216","-2.19259","1.73416","-0.477094","0.658446","-1.32737","-0.735613","-0.525661","0.604047","-1.27401","-1.66273","-0.0299277","0.187714","1.76301","2.26476","0.53267","-1.28497","-0.926417","-0.473786","-0.544571","-0.153357","0.635808","0.785497","1.52907","0.364686"],["0.197612","0.713663","-0.907662","2.64625","0.936589","0.486665","2.25691","-0.426176","0.423193","-0.352995","1.78092","1.28063","-1.20748","-0.44863","-0.524797","0.600914","-1.86333","-0.412171","0.379655","0.64728","1.02622","0.718676","-0.889787","-1.06805","-0.530608","1.44069","1.97681","0.983241","-0.0609315","0.0258248","-2.82992","2.50751"],["-1.92627","0.278353","0.213318","-0.641424","-0.749991","1.85588","-1.42406","-1.22336","-0.562928","-0.929501","-0.726756","0.0665186","0.506239","1.44194","-1.87493","0.479778","0.598708","0.45419","-0.792941","-1.56739","-0.478787","-0.854219","-0.78878","-0.0170641","0.100702","-0.0159206","2.02113","-0.978959","1.00494","-1.42999","-0.616475","-0.860756"],["1.58322","0.828076","-1.62682","0.0766444","-0.979286","1.41561","-0.325134","-1.4657","1.72713","-0.802951","-0.409259","0.12849","0.300334","0.515087","-0.272858","2.82277","0.263825","1.49785","0.630184","2.07742","-1.41993","0.323126","0.890967","-1.16138","-0.59412","1.05925","1.74905","1.15893","0.250261","1.69757","0.70548","0.592241"],["2.03675","0.342143","0.554466","1.30935","0.00775515","0.390102","-0.142656","-0.0552376","-0.542525","-0.54288","-1.35309","0.0421712","2.05668","0.117585","0.309326","-0.920079","-0.268559","-0.87167","-0.113684","0.34196","1.15489","1.00517","-0.983207","1.84887","0.347219","-0.37585","-1.66611","-2.19828","-0.0539533","1.86726","0.287021","0.490885"],["-0.248598","-0.850036","1.97977","2.18409","-0.151004","-1.08223","0.568285","-0.980183","0.239663","0.217288","-0.0179173","0.0295452","-1.76284","-1.20933","-0.758189","1.23428","0.516919","1.02928","-0.0199597","-1.81095","-0.462681","1.3915","1.22384","2.12639","-1.05757","0.749345","0.820981","1.40431","1.52082","0.59523","-1.57351","0.152446"],["-0.391134","0.0921147","1.18246","0.396867","-0.0963864","-2.37873","1.92334","1.36849","0.893145","2.15538","2.07599","-1.1709","0.0757277","-0.463179","1.47147","1.23895","-0.476902","1.01282","1.60214","1.06245","-0.738757","0.194692","1.42649","1.00978","1.17321","-0.148704","-1.68084","-1.05001","0.521116","-1.60337","1.46386","-0.176451"],["0.561626","0.186191","-0.311209","1.0266","-0.135495","-0.807501","0.0930922","1.99224","-1.33363","-0.142318","0.893142","-2.2587","1.18872","-1.10392","-0.36383","-0.687563","-0.719214","0.248532","-1.53081","-0.682569","-1.65203","0.950164","0.0872732","-0.0146501","0.534304","-1.05707","-0.267143","-0.531111","0.543299","1.92322","-0.684336","1.16142"],["-1.92624","1.67817","0.910257","-0.347509","-0.392232","1.57229","2.14956","-1.14252","2.25212","-0.716065","0.45346","-0.995698","0.45872","-0.804638","0.766469","0.513641","-1.71543","-1.99733","0.872661","1.15517","-0.148797","-1.27341","-1.07707","-2.11224","-0.642996","1.25481","1.11582","2.38579","-0.657959","-1.2771","-0.814096","2.82212"],["-1.0453","-2.28144","-0.405133","-0.232609","2.93411","-1.26008","0.672092","-0.712913","2.22086","2.23047","-0.740482","-0.419157","-1.84772","-0.193421","0.187568","2.5055","-2.01391","0.501819","0.602721","0.200708","1.55948","-0.165373","1.01003","0.570679","-0.724437","-0.936745","-0.607992","0.121907","-2.25813","0.036766","-0.0724228","-0.00318127"],["0.671152","-1.17532","-0.94281","0.369507","0.853098","-0.721924","-1.35648","-0.698596","1.52441","-0.610338","1.49468","-1.23598","-0.553282","3.36155","0.604009","0.67912","0.41191","-0.347111","0.581642","0.464281","0.905774","-0.132979","1.3895","0.315237","1.91315","2.10158","-0.668525","0.67936","-0.420064","-2.13058","2.43622","2.24875"],["-0.253627","-1.15683","2.6826","1.7588","1.6912","-0.907588","0.453584","-1.1214","-0.334958","0.0869387","-0.608642","1.44673","-0.260758","1.91051","0.490613","-0.179167","-0.0325346","-0.97906","0.206701","1.5216","0.7159","-1.32935","1.13909","0.248087","2.48583","1.2083","-0.0743152","0.581605","1.42385","1.62656","-0.0149289","-2.43011"],["1.43516","-1.40972","0.19733","0.66096","-1.06949","1.03416","-1.70211","-1.08588","1.46583","0.813868","-0.432876","1.98685","-1.20043","-2.89617","1.81903","-0.029818","-2.70777","-0.187954","-1.5665","-0.756155","-0.875416","1.76213","-0.835871","-1.06287","-0.88237","-0.859517","-0.583236","-1.19694","-1.94164","-0.170538","-0.640111","-1.42677"],["1.29456","0.200717","0.182503","1.16365","1.87017","2.01056","0.161726","-1.37358","0.652662","1.39797","-0.39214","-0.693414","0.00627902","0.225763","-2.25007","0.163118","-0.89388","-0.253069","0.649711","-0.600732","1.16523","1.66405","1.12713","-0.542661","-1.12666","-1.27303","-0.78303","0.590734","-2.2217","1.12867","-1.45354","-1.10521"],["0.705423","1.91661","-0.256267","1.74243","1.52956","1.3134","0.297255","0.894039","-0.201622","0.390219","0.952464","0.572586","-0.134951","-0.406774","0.0546022","0.742924","1.91885","0.625187","-0.773584","-1.43025","0.995656","-0.312883","-0.00560011","-1.19318","0.326971","1.45678","1.29301","-0.559313","-0.900326","0.820341","-2.06954","-1.28581"],["0.633211","-1.50349","-2.08714","-0.119703","0.715814","0.912857","1.83099","2.31734","-1.62418","1.6758","-1.56025","-0.801152","-0.672779","0.696985","0.756576","-1.11673","1.03141","-0.66162","-1.93884","1.82559","-1.21648","-1.91589","0.757018","0.214427","-1.83781","-1.57348","0.377085","0.420544","0.597286","-1.95757","-0.0331019","-1.26308"],["-0.816491","-1.89183","-0.618631","-0.390656","1.50084","-0.600405","1.7673","0.248072","-1.68859","0.18409","0.924301","-0.152325","-1.96049","0.315134","0.753099","-0.54886","1.54273","2.35886","-2.24097","0.785041","-0.212298","-1.08866","-0.0445919","-1.92809","0.752042","0.24582","-0.246502","-1.29313","-0.289493","-0.648326","0.459744","0.238732"],["1.09742","0.228144","0.271716","0.000896775","0.801826","0.757485","-2.83242","-0.134195","0.34046","-0.2336","1.10808","0.82822","0.558509","0.74018","-0.766149","1.32859","-0.790486","-0.228303","-1.37896","0.492372","1.5255","1.59199","-0.63988","0.960879","0.651728","2.57466","-2.32521","-0.430081","-1.89978","-0.548834","-1.3442","2.23441"],["-1.60965","-1.90749","-1.72915","-1.22648","-2.82956","0.611057","1.14899","1.64263","0.53929","1.41637","0.00305851","-0.957404","0.864127","-0.829805","0.277038","-0.2662","-1.19493","0.123729","1.25868","0.632015","1.14314","-0.326871","0.706943","-0.685854","0.0506174","-1.55503","0.700956","0.859741","0.281421","-0.177401","-0.237588","0.889237"],["2.25115","1.2777","-0.907477","1.94089","-0.355854","0.309772","3.41817","1.03227","-0.179688","1.00088","-1.26382","0.0366491","-0.188766","1.00373","-0.37583","-0.474865","-0.26874","-0.892169","1.14759","-2.10655","2.21787","-0.0865334","-2.0422","0.491508","1.22663","0.728514","0.317868","0.96839","-0.297643","0.6179","-0.191164","0.61218"],["-0.804735","1.0558","-0.511301","-0.48357","0.30457","2.96897","-1.81945","0.3236","-2.31333","0.44871","0.910007","1.51331","0.660893","1.14547","0.404296","-0.628374","0.900516","0.392185","0.586868","-1.06721","-2.06139","0.681904","0.361379","3.09579","0.295538","-0.13131","-0.915944","2.32004","0.999586","-0.234229","1.33393","0.579792"],["-2.87066","1.13357","1.2401","-0.269117","3.23804","0.465893","1.67205","0.471734","2.92637","-0.465374","-0.679514","-0.24989","-0.780358","0.979873","-0.300055","-0.102808","0.604605","0.568633","-1.13277","-1.08611","1.25004","-1.33324","1.00684","0.678971","-0.782746","0.00932901","0.0983157","-1.22553","-2.30953","1.33931","0.483194","-0.15407"]]},{"biasesArray":["-0.559019","0.79684","-1.0936","1.56925"],"n_inputs":"32","n_neurons":"4","weightsArray":[["0.520742","0.73737","-1.07042","1.30041","-0.849488","0.179185","-1.13891","0.000683427","0.298204","-0.269628","-0.358134","-0.792192","-0.593585","-0.698831","-0.711737","0.591108","0.709759","-1.54146","0.440031","1.69839","1.22974","-1.06489","-2.00753","-0.246229","1.52422","-1.29462","2.48752","-0.809459","1.83042","-2.61212","-1.23146","1.48819"],["-0.113475","-0.386373","2.01901","1.92976","-0.923495","0.657664","1.42972","1.20616","-0.0709476","0.544006","-1.598","-1.37913","0.0262058","0.27861","-1.29378","-0.037438","-1.84416","-1.01214","0.376471","0.940595","1.02659","0.954314","-1.08916","-0.923573","-0.465951","-0.997938","-0.161512","-0.485832","0.466225","-2.11705","0.953298","1.93447"],["-1.41651","0.599234","-0.648173","1.19517","-0.255054","-0.0270733","-0.661064","1.2084","-0.913587","1.36601","0.0711497","0.573961","-0.539309","2.64227","1.50321","-2.17763","-0.324772","-0.12919","0.283027","0.137933","1.16031","0.835282","1.33507","0.413008","-0.537527","-1.46489","-1.0481","-0.266581","-0.631902","-2.59458","0.533445","1.64541"],["-2.03351","0.659437","1.36883","-0.677467","1.91622","-0.295586","-0.550395","1.3879","-0.606135","-0.166364","-0.351988","1.15728","-0.730485","0.828612","0.275681","-0.801513","-0.645804","1.48324","-1.02551","0.0603322","0.542661","-0.372404","-1.05044","0.651498","-1.37997","0.429194","2.04216","-0.901096","-0.703276","2.07413","1.0118","0.881894"]]}],"networkShape":["18","32","32","4"]}
